{"learner":{"attributes":{"scikit_learn":"{\"_estimator_type\": \"regressor\"}"},"feature_names":["event_cause","zone_filled","corridor","osm_road_type","veh_type","gba_identifier","model_track","holiday_type","hour_ist","dow","month","is_weekend","is_peak","junction_centrality","rainfall_mm","rainfall_mm_3day","is_ipl_match_day","near_chinnaswamy_on_match_day","distance_to_chinnaswamy_km","is_election_campaign_period","is_public_holiday","has_kannada","desc_word_count","desc_closure_signal","desc_slow_signal","cascade_count","hotspot_score","segment_length_km","is_stretch","is_heavy_vehicle","is_public_transport","snap_distance_m","zone_baseline_rate","zone_surge_ratio","is_surge_zone","is_school_hour","is_office_peak_hour","is_it_corridor_zone","closure_probability","cascade_risk_score_v2"],"feature_types":["int","int","int","int","int","int","int","int","float","float","float","int","int","float","float","float","int","int","float","int","int","int","int","int","int","int","float","float","int","int","int","float","float","float","int","int","int","int","float","float"],"gradient_booster":{"model":{"cats":{"enc":[],"feature_segments":[],"sorted_idx":[]},"gbtree_model_param":{"num_parallel_tree":"1","num_trees":"400"},"iteration_indptr":[0,1,2,3,4,5,6,7,8,9,10,11,12,13,14,15,16,17,18,19,20,21,22,23,24,25,26,27,28,29,30,31,32,33,34,35,36,37,38,39,40,41,42,43,44,45,46,47,48,49,50,51,52,53,54,55,56,57,58,59,60,61,62,63,64,65,66,67,68,69,70,71,72,73,74,75,76,77,78,79,80,81,82,83,84,85,86,87,88,89,90,91,92,93,94,95,96,97,98,99,100,101,102,103,104,105,106,107,108,109,110,111,112,113,114,115,116,117,118,119,120,121,122,123,124,125,126,127,128,129,130,131,132,133,134,135,136,137,138,139,140,141,142,143,144,145,146,147,148,149,150,151,152,153,154,155,156,157,158,159,160,161,162,163,164,165,166,167,168,169,170,171,172,173,174,175,176,177,178,179,180,181,182,183,184,185,186,187,188,189,190,191,192,193,194,195,196,197,198,199,200,201,202,203,204,205,206,207,208,209,210,211,212,213,214,215,216,217,218,219,220,221,222,223,224,225,226,227,228,229,230,231,232,233,234,235,236,237,238,239,240,241,242,243,244,245,246,247,248,249,250,251,252,253,254,255,256,257,258,259,260,261,262,263,264,265,266,267,268,269,270,271,272,273,274,275,276,277,278,279,280,281,282,283,284,285,286,287,288,289,290,291,292,293,294,295,296,297,298,299,300,301,302,303,304,305,306,307,308,309,310,311,312,313,314,315,316,317,318,319,320,321,322,323,324,325,326,327,328,329,330,331,332,333,334,335,336,337,338,339,340,341,342,343,344,345,346,347,348,349,350,351,352,353,354,355,356,357,358,359,360,361,362,363,364,365,366,367,368,369,370,371,372,373,374,375,376,377,378,379,380,381,382,383,384,385,386,387,388,389,390,391,392,393,394,395,396,397,398,399,400],"tree_info":[0,0,0,0,0,0,0,0,0,0,0,0,0,0,0,0,0,0,0,0,0,0,0,0,0,0,0,0,0,0,0,0,0,0,0,0,0,0,0,0,0,0,0,0,0,0,0,0,0,0,0,0,0,0,0,0,0,0,0,0,0,0,0,0,0,0,0,0,0,0,0,0,0,0,0,0,0,0,0,0,0,0,0,0,0,0,0,0,0,0,0,0,0,0,0,0,0,0,0,0,0,0,0,0,0,0,0,0,0,0,0,0,0,0,0,0,0,0,0,0,0,0,0,0,0,0,0,0,0,0,0,0,0,0,0,0,0,0,0,0,0,0,0,0,0,0,0,0,0,0,0,0,0,0,0,0,0,0,0,0,0,0,0,0,0,0,0,0,0,0,0,0,0,0,0,0,0,0,0,0,0,0,0,0,0,0,0,0,0,0,0,0,0,0,0,0,0,0,0,0,0,0,0,0,0,0,0,0,0,0,0,0,0,0,0,0,0,0,0,0,0,0,0,0,0,0,0,0,0,0,0,0,0,0,0,0,0,0,0,0,0,0,0,0,0,0,0,0,0,0,0,0,0,0,0,0,0,0,0,0,0,0,0,0,0,0,0,0,0,0,0,0,0,0,0,0,0,0,0,0,0,0,0,0,0,0,0,0,0,0,0,0,0,0,0,0,0,0,0,0,0,0,0,0,0,0,0,0,0,0,0,0,0,0,0,0,0,0,0,0,0,0,0,0,0,0,0,0,0,0,0,0,0,0,0,0,0,0,0,0,0,0,0,0,0,0,0,0,0,0,0,0,0,0,0,0,0,0,0,0,0,0,0,0,0,0,0,0,0,0,0,0,0,0,0,0,0,0,0,0,0,0,0,0,0,0,0,0,0,0,0,0,0,0,0,0,0,0,0,0],"trees":[{"base_weights":[1.5964278E-3,1.7596975E-2,-3.1568624E-2,-5.8646612E-2,2.8540544E-2,-2.3662547E-2,-1.8399999E-1,-6.7307656E-3,-2.3666666E-1,3.7694305E-2,-1.7532464E-2,-1.3863632E-2,-1.1489361E-1,-1.225E-2,6.428572E-4,-1.5416665E-1,3.703704E-2,-4.9999985E-4,-1.5692307E-2,2.5000002E-2,6.1886795E-2,4.5535717E-2,-1.8139534E-1,3.7168145E-2,-3.1402435E-2,-1.0810807E-2,-1.3636363E-2,-8.76923E-3,2.500001E-4,-3.7837833E-2,2.9333332E-3,-1.03333324E-1,3.298539E-2,7.113821E-2,-1.6499999E-3,-1.6499999E-3,6.666667E-2,-6.3999996E-2,-9.789473E-3,7.272728E-2,-3.7837833E-2,-9.2134826E-2,-8.749996E-3,5.4166667E-2,-3.6428568E-3,2.8E-3,-3.6521738E-3,2.8E-3,-8.437499E-3,-2.5104491E-5,1.9917013E-3,7.6363643E-4,2.515625E-3,2.5479451E-3,1.06436866E-10,8.0000004E-4,-5.454545E-3,2.952381E-3,-1.1999998E-3,1.5E-3,-4.6874997E-3,-4.1249995E-3,2.8333333E-3,5.590063E-4,-1.9124997E-3,1.0159883E-10,2.7857143E-3],"categories":[],"categories_nodes":[],"categories_segments":[],"categories_sizes":[],"default_left":[0,0,0,0,0,0,0,0,0,0,0,0,0,0,0,0,0,0,0,0,0,0,0,0,0,0,0,0,0,0,0,0,0,0,0,0,0,0,0,0,0,0,0,0,0,0,0,0,0,0,0,0,0,0,0,0,0,0,0,0,0,0,0,0,0,0,0],"id":0,"left_children":[1,3,5,7,9,11,13,15,17,19,21,23,25,-1,-1,27,29,-1,-1,31,33,35,37,39,41,43,-1,-1,-1,45,-1,47,49,51,-1,-1,53,55,-1,57,59,61,63,65,-1,-1,-1,-1,-1,-1,-1,-1,-1,-1,-1,-1,-1,-1,-1,-1,-1,-1,-1,-1,-1,-1,-1],"loss_changes":[8.315675E-1,8.8361007E-1,6.102644E-1,1.2276013E0,3.907715E-1,4.3287435E-1,1.1608618E0,6.768162E-1,1.8815898E0,2.3553932E-1,1.5997782E0,3.949831E-1,1.656626E0,0E0,0E0,5.411859E-1,3.7208408E-1,0E0,0E0,5.2400243E-1,2.9047537E-1,2.4160118E-1,7.106743E-1,3.041395E-1,4.5043543E-1,2.725209E-1,0E0,0E0,0E0,4.1856322E-1,0E0,1.0759583E0,5.41239E-1,1.4076984E-1,0E0,0E0,1.1324203E-1,2.7190304E-1,0E0,2.2688597E-1,3.92652E-1,7.662999E-1,3.626506E-1,5.0297618E-2,0E0,0E0,0E0,0E0,0E0,0E0,0E0,0E0,0E0,0E0,0E0,0E0,0E0,0E0,0E0,0E0,0E0,0E0,0E0,0E0,0E0,0E0,0E0],"parents":[2147483647,0,0,1,1,2,2,3,3,4,4,5,5,6,6,7,7,8,8,9,9,10,10,11,11,12,12,15,15,16,16,19,19,20,20,21,21,22,22,23,23,24,24,25,25,29,29,31,31,32,32,33,33,36,36,37,37,39,39,40,40,41,41,42,42,43,43],"right_children":[2,4,6,8,10,12,14,16,18,20,22,24,26,-1,-1,28,30,-1,-1,32,34,36,38,40,42,44,-1,-1,-1,46,-1,48,50,52,-1,-1,54,56,-1,58,60,62,64,66,-1,-1,-1,-1,-1,-1,-1,-1,-1,-1,-1,-1,-1,-1,-1,-1,-1,-1,-1,-1,-1,-1,-1],"split_conditions":[7.3412457E-4,1E0,4.3E0,6.849315E-2,1.7E1,1E0,2.3326572E-2,8.262947E-2,7E-1,1.0503463E1,9.29358E0,1E0,1.2E1,-2.918495E-3,-2.298432E-4,1.1E1,7E-1,-1.2027484E-3,-4.1699577E-3,5E0,1E0,5.432345E0,6E0,7E0,4.01865E0,9E0,-1.160782E-3,-3.0227504E-3,-2.5252465E-3,2.4470818E-4,3.99842E-3,5E0,6E0,4E0,-1.0248001E-3,-2.237291E-3,6.117705E-4,1.2639765E1,-2.093367E-3,1.0832606E1,4.545E-1,8.095E-1,1.0256393E1,3E0,-2.9200665E-3,5.2816574E-3,-1.6910279E-3,4.872216E-3,-3.9389045E-3,-4.217E-5,1.8867657E-3,4.950375E-4,2.891203E-3,2.6954827E-3,1.484708E-5,-1.8814802E-3,-9.3122764E-4,2.8548753E-3,-1.5600519E-3,1.0328293E-3,-2.453967E-3,-2.412227E-3,9.839905E-4,1.6400065E-4,-1.2225757E-3,-2.215808E-3,2.0944488E-3],"split_indices":[26,5,15,38,2,35,38,39,15,18,18,29,2,0,0,2,15,0,0,0,36,18,1,3,18,1,0,0,0,26,0,1,1,2,0,0,26,18,0,18,32,32,18,3,0,0,0,0,0,0,0,0,0,0,0,0,0,0,0,0,0,0,0,0,0,0,0],"split_type":[0,0,0,0,0,0,0,0,0,0,0,0,0,0,0,0,0,0,0,0,0,0,0,0,0,0,0,0,0,0,0,0,0,0,0,0,0,0,0,0,0,0,0,0,0,0,0,0,0,0,0,0,0,0,0,0,0,0,0,0,0,0,0,0,0,0,0],"sum_hessian":[1.565E3,1.056E3,5.09E2,1.32E2,9.24E2,4.85E2,2.4E1,1.03E2,2.9E1,7.71E2,1.53E2,4.39E2,4.6E1,1.1E1,1.3E1,2.3E1,8E1,1.7E1,1.2E1,5.07E2,2.64E2,1.11E2,4.2E1,1.12E2,3.27E2,3.6E1,1E1,1.2E1,1.1E1,3.6E1,4.4E1,2.9E1,4.78E2,2.45E2,1.9E1,1.9E1,9.2E1,2.4E1,1.8E1,7.6E1,3.6E1,8.8E1,2.39E2,2.3E1,1.3E1,1.4E1,2.2E1,1.4E1,1.5E1,2.38E2,2.4E2,5.4E1,1.91E2,7.2E1,2E1,1.4E1,1E1,6.2E1,1.4E1,2.1E1,1.5E1,7.1E1,1.7E1,1.6E2,7.9E1,1E1,1.3E1],"tree_param":{"num_deleted":"0","num_feature":"40","num_nodes":"67","size_leaf_vector":"1"}},{"base_weights":[-2.8735595E-3,1.4729373E-2,-4.795454E-2,-5.6081075E-2,2.5408166E-2,-3.5249997E-2,-1.707317E-1,-1.359375E-1,4.705886E-3,5.081522E-2,1.0114196E-2,-2.3924727E-2,-1.7931034E-1,4.761905E-2,-3.8095236E-1,-6.851851E-2,-1.3636363E-2,3.2E-2,-5.454545E-3,7.489712E-2,3.9682575E-3,1.634783E-2,-8.205128E-2,-4.225806E-2,6.666667E-2,-1.10769225E-2,-7.0588227E-4,1.0159883E-10,2.7272727E-3,-5.454545E-3,-1.6363634E-2,6.666667E-2,-2.681818E-1,6.5573774E-2,-3.1999997E-3,8.806819E-2,3.9705884E-2,-5.4999995E-3,3.4862388E-2,-1.822913E-3,5.260417E-2,-1.00714285E-2,5.769231E-2,-5.535055E-2,4.7500003E-2,2.9333332E-3,-3.1578934E-4,1.0159883E-10,2.8695653E-3,-1.090909E-2,-4.75E-3,4.8000008E-4,2.9189188E-3,2.976E-3,1.7884616E-3,-1.4285713E-3,2.3125E-3,-1.2558138E-3,2.5074626E-3,-3.0499997E-3,4.984616E-4,2.0727273E-3,-1.392857E-3,2.8124999E-3,1.0159883E-10,-1.1926227E-3,-5.6785713E-3,2.8846154E-3,-1.1999998E-3],"categories":[],"categories_nodes":[],"categories_segments":[],"categories_sizes":[],"default_left":[0,0,0,0,0,0,0,0,0,0,0,0,0,0,0,0,0,0,0,0,0,0,0,0,0,0,0,0,0,0,0,0,0,0,0,0,0,0,0,0,0,0,0,0,0,0,0,0,0,0,0,0,0,0,0,0,0,0,0,0,0,0,0,0,0,0,0,0,0],"id":1,"left_children":[1,3,5,7,9,11,13,15,17,19,21,23,25,27,29,31,-1,33,-1,35,37,39,41,43,45,-1,-1,-1,-1,-1,-1,47,49,51,-1,53,55,-1,57,59,61,-1,63,65,67,-1,-1,-1,-1,-1,-1,-1,-1,-1,-1,-1,-1,-1,-1,-1,-1,-1,-1,-1,-1,-1,-1,-1,-1],"loss_changes":[1.2434174E0,8.5362864E-1,6.803061E-1,7.190656E-1,3.8028926E-1,6.483189E-1,1.9001161E0,1.3435894E0,4.3855402E-1,4.1486716E-1,3.5352564E-1,6.2065053E-1,8.4930575E-1,4.329004E-2,5.887444E-1,1.4754208E0,0E0,3.5616174E-1,0E0,1.0913503E-1,7.3549294E-1,3.7890854E-1,1.4018314E0,3.6692762E-1,1.5232748E-1,0E0,0E0,0E0,0E0,0E0,0E0,6.376812E-2,1.7310607E-1,9.437513E-2,0E0,4.9830914E-2,2.2562149E-1,0E0,4.109314E-1,7.086137E-1,3.166914E-1,0E0,5.408653E-2,5.5857074E-1,1.7413458E-1,0E0,0E0,0E0,0E0,0E0,0E0,0E0,0E0,0E0,0E0,0E0,0E0,0E0,0E0,0E0,0E0,0E0,0E0,0E0,0E0,0E0,0E0,0E0,0E0],"parents":[2147483647,0,0,1,1,2,2,3,3,4,4,5,5,6,6,7,7,8,8,9,9,10,10,11,11,12,12,13,13,14,14,15,15,17,17,19,19,20,20,21,21,22,22,23,23,24,24,31,31,32,32,33,33,35,35,36,36,38,38,39,39,40,40,42,42,43,43,44,44],"right_children":[2,4,6,8,10,12,14,16,18,20,22,24,26,28,30,32,-1,34,-1,36,38,40,42,44,46,-1,-1,-1,-1,-1,-1,48,50,52,-1,54,56,-1,58,60,62,-1,64,66,68,-1,-1,-1,-1,-1,-1,-1,-1,-1,-1,-1,-1,-1,-1,-1,-1,-1,-1,-1,-1,-1,-1,-1,-1],"split_conditions":[8.5647864E-4,1E0,1E0,2.095E0,5E0,2.447082E-3,6.288149E0,1.5E0,1E0,5.9558773E-1,1.9E0,1.1118589E2,6E0,8E0,8E0,4E0,-3.7662366E-3,8.623768E-2,-2.815109E-3,1E0,1.03539545E-2,1E0,1.905E-1,4.4447254E-2,1.1E1,-1.406739E-3,-9.2547765E-4,-2.149334E-3,4.0954356E-3,-3.7991318E-3,-3.2569943E-3,1.0100815E-2,2.580625E-2,1E0,-3.9891936E-3,6.667E-1,1E0,-3.042409E-3,3.1874022E1,3E0,1.35590725E1,-2.9284565E-3,4E0,2.068137E0,5.4208413E-2,2.3799737E-3,-5.692865E-4,-2.7335659E-3,8.3322736E-4,-3.786672E-3,-7.769127E-4,6.1541935E-4,5.957768E-3,2.7151415E-3,1.0271256E-3,-1.3810433E-3,3.295363E-3,-2.0395587E-3,2.4941913E-3,-1.8318524E-3,5.161114E-4,1.3320346E-3,-1.3667869E-3,3.3485969E-3,-1.5614136E-3,-6.5697107E-4,-2.7217825E-3,3.4814582E-3,-1.2502485E-3],"split_indices":[26,5,35,33,8,26,18,33,35,39,14,31,8,8,8,4,0,38,0,24,13,12,32,13,10,0,0,0,0,0,0,13,13,30,0,32,29,0,31,5,18,0,4,39,13,0,0,0,0,0,0,0,0,0,0,0,0,0,0,0,0,0,0,0,0,0,0,0,0],"split_type":[0,0,0,0,0,0,0,0,0,0,0,0,0,0,0,0,0,0,0,0,0,0,0,0,0,0,0,0,0,0,0,0,0,0,0,0,0,0,0,0,0,0,0,0,0,0,0,0,0,0,0,0,0,0,0,0,0,0,0,0,0,0,0,0,0,0,0,0,0],"sum_hessian":[1.565E3,1.126E3,4.39E2,1.47E2,9.79E2,3.99E2,4E1,6.3E1,8.4E1,3.67E2,6.12E2,3.71E2,2.8E1,2E1,2E1,5.3E1,1E1,7.4E1,1E1,2.42E2,1.25E2,5.74E2,3.8E1,3.09E2,6.2E1,1.2E1,1.6E1,1E1,1E1,1E1,1E1,3.2E1,2.1E1,6E1,1.4E1,1.75E2,6.7E1,1.7E1,1.08E2,3.83E2,1.91E2,1.3E1,2.5E1,2.7E2,3.9E1,4.4E1,1.8E1,1E1,2.2E1,1E1,1.1E1,2.4E1,3.6E1,1.24E2,5.1E1,2E1,4.7E1,4.2E1,6.6E1,5.9E1,3.24E2,1.64E2,2.7E1,1.5E1,1E1,2.43E2,2.7E1,2.5E1,1.4E1],"tree_param":{"num_deleted":"0","num_feature":"40","num_nodes":"69","size_leaf_vector":"1"}},{"base_weights":[1.2025353E-3,-1.7631099E-2,4.5052633E-2,-1.21951215E-1,-1.3602247E-2,9.009009E-2,3.123288E-2,-2.3703703E-1,2.8E-3,-2.9279275E-2,1.2468832E-2,2.970297E-3,1.0159883E-10,4.6333335E-2,-3.787878E-2,-1.21875E-2,2.500001E-4,-4.203536E-3,-8.186046E-2,2.362205E-2,-1.9047618E-1,2.6146792E-2,2.9638554E-3,-8.210526E-3,5.6250002E-2,1.0026389E-2,-7.702702E-2,-5.310734E-2,-2.102564E-1,4.5769233E-2,-2.3770487E-2,1.0159883E-10,-1.090909E-2,7.3619667E-3,8.035714E-2,2.9032258E-3,-4.9999985E-4,-3.0999996E-3,5.9142866E-4,-9.836063E-4,-7.928572E-3,-2.6194027E-3,1.5681819E-3,-1.12E-2,-3.1199998E-3,1.6408165E-3,-2.8124996E-3,-1.5757574E-3,2.8749998E-3,1.223301E-3,-1.4754096E-3,2.9347825E-3,1.0159883E-10],"categories":[],"categories_nodes":[],"categories_segments":[],"categories_sizes":[],"default_left":[0,0,0,0,0,0,0,0,0,0,0,0,0,0,0,0,0,0,0,0,0,0,0,0,0,0,0,0,0,0,0,0,0,0,0,0,0,0,0,0,0,0,0,0,0,0,0,0,0,0,0,0,0],"id":2,"left_children":[1,3,5,7,9,11,13,15,-1,17,19,-1,-1,21,23,-1,-1,25,27,29,31,33,-1,-1,35,37,39,41,43,45,47,-1,-1,49,51,-1,-1,-1,-1,-1,-1,-1,-1,-1,-1,-1,-1,-1,-1,-1,-1,-1,-1],"loss_changes":[1.305648E0,4.6318224E-1,2.9282933E-1,1.0379477E0,4.360574E-1,8.919811E-2,3.8267553E-1,1.1244211E0,0E0,8.7778485E-1,9.12159E-1,0E0,0E0,3.151238E-1,1.4803358E0,0E0,0E0,4.6916756E-1,7.825675E-1,4.0098977E-1,6.9264066E-1,2.2140476E-1,0E0,0E0,1.4344756E-1,4.1826162E-1,6.043768E-1,6.425854E-1,6.369641E-1,3.288691E-1,4.246135E-1,0E0,0E0,3.0996877E-1,7.861027E-2,0E0,0E0,0E0,0E0,0E0,0E0,0E0,0E0,0E0,0E0,0E0,0E0,0E0,0E0,0E0,0E0,0E0,0E0],"parents":[2147483647,0,0,1,1,2,2,3,3,4,4,5,5,6,6,7,7,9,9,10,10,13,13,14,14,17,17,18,18,19,19,20,20,21,21,24,24,25,25,26,26,27,27,28,28,29,29,30,30,33,33,34,34],"right_children":[2,4,6,8,10,12,14,16,-1,18,20,-1,-1,22,24,-1,-1,26,28,30,32,34,-1,-1,36,38,40,42,44,46,48,-1,-1,50,52,-1,-1,-1,-1,-1,-1,-1,-1,-1,-1,-1,-1,-1,-1,-1,-1,-1,-1],"split_conditions":[9E0,4.6173585E-4,2.4470818E-4,2.6495242E-1,2.869E0,3.2E0,1.2504384E1,9.038477E0,7.839889E-4,2.7080598E-1,4E0,1.9714492E-3,1.7549917E-4,5E0,1.2846771E1,-3.3769135E-3,3.0323997E-4,3.0049492E-2,1.0115655E1,2.6777748E-2,6E0,1E-1,2.0813656E-3,-1.2539682E-3,4.545E-1,5E0,1.2E1,7.008701E0,3E0,3.6E0,1E0,-3.2464118E-4,-3.911624E-3,8E0,4E0,7.622418E-4,-1.1575088E-3,-3.6362316E-3,6.23822E-4,-1.4419368E-3,-2.0704323E-3,-1.7275568E-3,1.0681822E-3,-2.92701E-3,-2.6736483E-3,1.8818201E-3,-1.7966644E-3,-1.650357E-3,2.3360378E-3,1.2674131E-3,-1.975206E-4,4.367036E-3,2.4814377E-5],"split_indices":[22,13,26,39,33,15,18,18,0,39,15,0,0,9,18,0,0,13,18,13,1,15,0,0,32,0,10,18,9,15,12,0,0,1,9,0,0,0,0,0,0,0,0,0,0,0,0,0,0,0,0,0,0],"split_type":[0,0,0,0,0,0,0,0,0,0,0,0,0,0,0,0,0,0,0,0,0,0,0,0,0,0,0,0,0,0,0,0,0,0,0,0,0,0,0,0,0,0,0,0,0,0,0,0,0,0,0,0,0],"sum_hessian":[1.579E3,1.105E3,4.74E2,4E1,1.065E3,1.1E2,3.64E2,2.6E1,1.4E1,6.65E2,4E2,1E2,1E1,2.99E2,6.5E1,1.5E1,1.1E1,4.51E2,2.14E2,3.8E2,2E1,2.17E2,8.2E1,1.8E1,4.7E1,3.78E2,7.3E1,1.76E2,3.8E1,2.59E2,1.21E2,1E1,1E1,1.62E2,5.5E1,3E1,1.7E1,2.9E1,3.49E2,6E1,1.3E1,1.33E2,4.3E1,1.4E1,2.4E1,2.44E2,1.5E1,9.8E1,2.3E1,1.02E2,6E1,4.5E1,1E1],"tree_param":{"num_deleted":"0","num_feature":"40","num_nodes":"53","size_leaf_vector":"1"}},{"base_weights":[1.0081952E-3,-2.094361E-2,2.7538251E-2,-2.232851E-3,-6.91358E-2,6.682243E-2,1.0869569E-2,2.2764264E-3,-6.461538E-3,-1.4343433E-1,-1.7931031E-2,4.8920866E-2,2.9605264E-3,7.232143E-2,-6.5822746E-3,5.0970875E-2,-2.2195118E-2,-8.552631E-2,-3.2083333E-1,-1.0508474E-1,4.1379314E-2,6.611571E-2,-1.8947365E-3,8.8297874E-2,-3.1578934E-4,4.452055E-2,-3.6399994E-2,8.157895E-2,1.2903229E-2,-1.1517856E-1,1.2709034E-2,2.8333333E-3,-1.3898304E-1,-1.4357142E-2,-2.7272725E-3,-2.439024E-2,-8.210526E-3,7.123288E-2,-3.1999997E-3,8.804348E-2,-3.3333297E-3,2.9642857E-3,1.0159883E-10,8.865979E-2,-4.1999996E-2,-5.913461E-2,7.4418604E-2,2.9696971E-3,-9.3749986E-4,-3.6521738E-3,1.6901409E-3,-5.9999996E-3,3.2608703E-4,-7.2E-3,7.7894743E-4,-6.195652E-3,2.7857143E-3,2.8695653E-3,-5.0526313E-3,2.94E-3,3.750001E-4,2.9634146E-3,1.0159883E-10,-3.6428568E-3,2.8235293E-3,1.0159883E-10,2.9655173E-3,2.8E-3,-2.9166664E-3,-2.472727E-3,8.8636373E-4,2.909091E-3,1.0159883E-10],"categories":[],"categories_nodes":[],"categories_segments":[],"categories_sizes":[],"default_left":[0,0,0,0,0,0,0,0,0,0,0,0,0,0,0,0,0,0,0,0,0,0,0,0,0,0,0,0,0,0,0,0,0,0,0,0,0,0,0,0,0,0,0,0,0,0,0,0,0,0,0,0,0,0,0,0,0,0,0,0,0,0,0,0,0,0,0,0,0,0,0,0,0],"id":3,"left_children":[1,3,5,7,9,11,13,15,-1,17,19,21,-1,23,25,27,29,31,33,35,37,39,-1,41,-1,43,45,47,49,51,53,-1,55,-1,-1,57,-1,59,-1,61,63,-1,-1,65,67,69,71,-1,-1,-1,-1,-1,-1,-1,-1,-1,-1,-1,-1,-1,-1,-1,-1,-1,-1,-1,-1,-1,-1,-1,-1,-1,-1],"loss_changes":[9.248179E-1,7.834337E-1,4.700861E-1,6.031379E-1,9.219068E-1,1.1723262E-1,5.4313487E-1,7.3398274E-1,0E0,9.8957014E-1,7.538702E-1,2.720532E-1,0E0,1.4917397E-1,6.035096E-1,2.3897392E-1,1.3321223E0,7.442954E-1,8.2692075E-1,7.960227E-1,3.9211208E-1,1.8455982E-1,0E0,8.7246716E-2,0E0,5.612906E-1,6.342553E-1,2.2704172E-1,5.507378E-1,1.1996311E0,1.0078461E0,0E0,9.4300985E-1,0E0,0E0,7.2499186E-1,0E0,1.1353901E-1,0E0,8.696979E-2,3.5668346E-1,0E0,0E0,8.76407E-2,3.8274443E-1,4.32023E-1,7.216351E-2,0E0,0E0,0E0,0E0,0E0,0E0,0E0,0E0,0E0,0E0,0E0,0E0,0E0,0E0,0E0,0E0,0E0,0E0,0E0,0E0,0E0,0E0,0E0,0E0,0E0,0E0],"parents":[2147483647,0,0,1,1,2,2,3,3,4,4,5,5,6,6,7,7,9,9,10,10,11,11,13,13,14,14,15,15,16,16,17,17,18,18,19,19,20,20,21,21,23,23,25,25,26,26,27,27,28,28,29,29,30,30,32,32,35,35,37,37,39,39,40,40,43,43,44,44,45,45,46,46],"right_children":[2,4,6,8,10,12,14,16,-1,18,20,22,-1,24,26,28,30,32,34,36,38,40,-1,42,-1,44,46,48,50,52,54,-1,56,-1,-1,58,-1,60,-1,62,64,-1,-1,66,68,70,72,-1,-1,-1,-1,-1,-1,-1,-1,-1,-1,-1,-1,-1,-1,-1,-1,-1,-1,-1,-1,-1,-1,-1,-1,-1,-1],"split_conditions":[6E0,8.5647864E-4,2E0,1.4286E0,2.5451218E1,2.64E0,2.4470818E-4,5E0,-3.6061907E-3,6.601E0,7E0,2.095E0,1.7814551E-3,2.2833837E-2,3.03753E1,5.470394E-1,8E0,3.6486488E-2,1E0,6.364E-1,1E0,7E0,-2.3103543E-3,1.8E1,-4.2172425E-4,4.8167822E-1,4.375E0,9.545E-1,7.2370464E-1,6E0,3E0,3.6158531E-3,1E0,-3.5750975E-3,-8.043492E-4,3.9805334E-2,-2.487056E-3,7E0,-1.6520108E-3,4.6203694E-1,1E1,2.4389748E-3,6.376542E-5,2.4978463E-3,3.636E-1,3.0881496E-2,8E0,2.3891085E-3,-3.8180703E-3,-2.196239E-3,2.4183374E-3,-3.0916268E-3,3.1596175E-4,-3.7304766E-3,4.28379E-4,-2.8557987E-3,2.6433303E-3,1.2462199E-3,-1.8600362E-3,1.606674E-3,-1.502027E-4,2.3130842E-3,2.3114732E-4,-2.0455306E-3,7.76427E-4,4.5616698E-4,1.9300489E-3,1.2146262E-3,-1.5987692E-3,-8.428498E-4,1.3349643E-3,3.26015E-3,-1.5329916E-3],"split_indices":[22,26,4,32,31,33,26,8,0,33,8,33,0,13,31,39,8,38,11,32,35,3,0,2,0,39,33,32,39,1,0,0,15,0,0,13,0,3,0,39,22,0,0,13,32,13,1,0,0,0,0,0,0,0,0,0,0,0,0,0,0,0,0,0,0,0,0,0,0,0,0,0,0],"split_type":[0,0,0,0,0,0,0,0,0,0,0,0,0,0,0,0,0,0,0,0,0,0,0,0,0,0,0,0,0,0,0,0,0,0,0,0,0,0,0,0,0,0,0,0,0,0,0,0,0,0,0,0,0,0,0,0,0,0,0,0,0,0,0,0,0,0,0,0,0,0,0,0,0],"sum_hessian":[1.586E3,8.68E2,7.18E2,6.26E2,2.42E2,2.13E2,5.05E2,6.14E2,1.2E1,9.8E1,1.44E2,1.38E2,7.5E1,1.11E2,3.94E2,2.05E2,4.09E2,7.5E1,2.3E1,5.8E1,8.6E1,1.2E2,1.8E1,9.3E1,1.8E1,1.45E2,2.49E2,1.13E2,9.2E1,1.11E2,2.98E2,1.7E1,5.8E1,1.3E1,1E1,4E1,1.8E1,7.2E1,1.4E1,9.1E1,2.9E1,8.3E1,1E1,9.6E1,4.9E1,2.07E2,4.2E1,9.8E1,1.5E1,2.2E1,7E1,6.6E1,4.5E1,1.4E1,2.84E2,4.5E1,1.3E1,2.2E1,1.8E1,4.9E1,2.3E1,8.1E1,1E1,1.3E1,1.6E1,1E1,8.6E1,1.4E1,3.5E1,1.64E2,4.3E1,3.2E1,1E1],"tree_param":{"num_deleted":"0","num_feature":"40","num_nodes":"73","size_leaf_vector":"1"}},{"base_weights":[-1.4575374E-3,-4.0147327E-2,1.8822398E-2,-9.308507E-3,-1.0892857E-1,2.095517E-2,-5.454545E-3,-1.2982455E-1,1.2187503E-2,-1.4887217E-1,4.1666668E-2,2.9377207E-2,-1.988636E-2,3.6344296E-9,-1.3058823E-2,2.943396E-3,-4.8507424E-3,-1.10769225E-2,-1.2396693E-1,2.8846154E-3,-2.7272725E-3,6.822917E-2,1.8030306E-2,-3.0120444E-3,-8.181817E-3,-5.2E-3,2.8888888E-3,-8.8135585E-2,1.8571433E-2,-7.764705E-2,-2.2702701E-1,8.277778E-2,-4.153846E-3,3.3086423E-2,-5.8593713E-3,-6.7948714E-2,5.393259E-2,-5.806451E-3,8.275863E-4,1.5590552E-3,-9.642855E-4,-1.0147056E-3,-7.166666E-3,-4.9999985E-4,-1.215E-2,9.67742E-4,2.78E-3,2.6086965E-4,2.1960784E-3,-1.5102039E-3,1.609091E-3,-8.181817E-3,-1.0147056E-3,1.0815358E-10,2.440678E-3],"categories":[],"categories_nodes":[],"categories_segments":[],"categories_sizes":[],"default_left":[0,0,0,0,0,0,0,0,0,0,0,0,0,0,0,0,0,0,0,0,0,0,0,0,0,0,0,0,0,0,0,0,0,0,0,0,0,0,0,0,0,0,0,0,0,0,0,0,0,0,0,0,0,0,0],"id":4,"left_children":[1,3,5,7,9,11,-1,13,15,17,19,21,23,25,-1,-1,27,-1,29,-1,-1,31,33,35,-1,-1,-1,37,39,41,43,45,-1,47,49,51,53,-1,-1,-1,-1,-1,-1,-1,-1,-1,-1,-1,-1,-1,-1,-1,-1,-1,-1],"loss_changes":[1.2388961E0,1.1507608E0,4.4713578E-1,9.756532E-1,1.0167764E0,3.5349628E-1,0E0,2.2604747E0,4.6896335E-1,6.841426E-1,2.687937E-1,3.7393254E-1,7.5008553E-1,7.01037E-1,0E0,0E0,5.244277E-1,0E0,5.599936E-1,0E0,0E0,5.888175E-1,2.3758648E-1,6.174986E-1,0E0,0E0,0E0,7.2505414E-1,3.5734928E-1,5.925457E-1,1.3784728E0,8.693588E-2,0E0,3.956417E-1,6.8018246E-1,5.3584766E-1,1.3163206E-1,0E0,0E0,0E0,0E0,0E0,0E0,0E0,0E0,0E0,0E0,0E0,0E0,0E0,0E0,0E0,0E0,0E0,0E0],"parents":[2147483647,0,0,1,1,2,2,3,3,4,4,5,5,7,7,8,8,9,9,10,10,11,11,12,12,13,13,16,16,18,18,21,21,22,22,23,23,27,27,28,28,29,29,30,30,31,31,33,33,34,34,35,35,36,36],"right_children":[2,4,6,8,10,12,-1,14,16,18,20,22,24,26,-1,-1,28,-1,30,-1,-1,32,34,36,-1,-1,-1,38,40,42,44,46,-1,48,50,52,54,-1,-1,-1,-1,-1,-1,-1,-1,-1,-1,-1,-1,-1,-1,-1,-1,-1,-1],"split_conditions":[3E0,8.5647864E-4,2.69179E-3,1E0,6.3741062E1,1.2E1,-1.3702734E-3,6.849315E-2,3.8804674E0,2E0,2E-1,2.4470818E-4,1E0,2.423E0,-3.6092866E-3,1.3229452E-3,4E0,-3.0459568E-3,8.472724E0,1.6761724E-3,-1.3180929E-3,9.333E0,6.472245E1,6E0,-1.7159161E-3,-2.9025874E-3,1.7004235E-3,8E0,4.5527942E-2,1E-1,1E0,1.9176838E-3,-1.8424578E-3,3.1356403E1,4E0,5.3742095E-3,1.3E1,-3.2239389E-3,-2.5423735E-4,1.432866E-3,-3.843502E-4,-7.156839E-4,-2.9836132E-3,-6.126975E-4,-3.7231692E-3,7.124276E-4,2.5202192E-3,1.577939E-4,1.980498E-3,-9.5636887E-4,1.5816174E-3,-2.6397263E-3,-1.1755938E-3,-1.234559E-4,2.0183334E-3],"split_indices":[22,26,26,5,31,8,0,38,18,8,15,26,35,33,0,0,1,0,18,0,0,33,31,1,0,0,0,8,38,14,19,13,0,31,9,13,8,0,0,0,0,0,0,0,0,0,0,0,0,0,0,0,0,0,0],"split_type":[0,0,0,0,0,0,0,0,0,0,0,0,0,0,0,0,0,0,0,0,0,0,0,0,0,0,0,0,0,0,0,0,0,0,0,0,0,0,0,0,0,0,0,0,0,0,0,0,0,0,0,0,0,0,0],"sum_hessian":[1.577E3,5.42E2,1.035E3,3.75E2,1.67E2,1.025E3,1E1,5.6E1,3.19E2,1.32E2,3.5E1,8.5E2,1.75E2,4E1,1.6E1,5.2E1,2.67E2,1.2E1,1.2E2,2.5E1,1E1,1.91E2,6.59E2,1.65E2,1E1,1.4E1,2.6E1,5.8E1,2.09E2,8.4E1,3.6E1,1.79E2,1.2E1,4.04E2,2.55E2,7.7E1,8.8E1,3E1,2.8E1,1.26E2,8.3E1,6.7E1,1.7E1,1.7E1,1.9E1,3E1,1.49E2,2.52E2,1.52E2,1.46E2,1.09E2,1E1,6.7E1,3E1,5.8E1],"tree_param":{"num_deleted":"0","num_feature":"40","num_nodes":"55","size_leaf_vector":"1"}},{"base_weights":[-6.611036E-3,-2.726231E-2,1.9679304E-2,-1.9926647E-2,-1.3392857E-1,6.4500004E-2,1.2320365E-3,-5.45994E-2,4.35685E-3,-4.186046E-2,-1.2214285E-2,8.1656806E-2,-2.8124996E-2,6.1320756E-2,-1.5445022E-2,-7.896825E-2,1.7441863E-2,-1.8399999E-1,1.4628825E-2,3.636364E-2,-8.181817E-3,2.9756099E-3,3.4042556E-2,-4.6874997E-3,2.8235293E-3,8.674699E-2,-2.9166663E-2,2.9189188E-3,-2.7456643E-2,-1.3362068E-1,-3.2116786E-2,6.769231E-2,-1.3181818E-1,-1.3636363E-2,8.0000004E-4,3.2345016E-2,-6.0227267E-2,2.8695653E-3,-2.7272725E-3,2.9E-3,-2.1666666E-3,2.500001E-4,2.9583331E-3,2.75E-3,-4.153846E-3,-3.9116714E-2,2.9E-3,-5.460674E-3,7.5000006E-4,6.233767E-4,-2.9508194E-3,2.6086965E-4,2.9302326E-3,-8.181817E-3,2.500001E-4,-2.1249996E-3,1.1810345E-3,-5.9999996E-3,4.8387203E-5,2.8888888E-3,-1.5463916E-3],"categories":[],"categories_nodes":[],"categories_segments":[],"categories_sizes":[],"default_left":[0,0,0,0,0,0,0,0,0,0,0,0,0,0,0,0,0,0,0,0,0,0,0,0,0,0,0,0,0,0,0,0,0,0,0,0,0,0,0,0,0,0,0,0,0,0,0,0,0,0,0,0,0,0,0,0,0,0,0,0,0],"id":5,"left_children":[1,3,5,7,9,11,13,15,17,19,-1,21,23,25,27,29,31,33,35,37,-1,-1,39,-1,-1,41,43,-1,45,47,49,51,53,-1,-1,55,57,-1,-1,-1,-1,-1,-1,-1,-1,59,-1,-1,-1,-1,-1,-1,-1,-1,-1,-1,-1,-1,-1,-1,-1],"loss_changes":[8.4641993E-1,6.804256E-1,5.6711864E-1,6.889741E-1,1.3915988E0,3.201264E-1,4.8897132E-1,5.9300184E-1,9.352637E-1,7.8646934E-1,0E0,1.3768554E-1,5.1590073E-1,2.464101E-1,5.199827E-1,6.409663E-1,6.5395606E-1,1.4369937E0,6.0933155E-1,2.5770748E-1,0E0,0E0,3.1975412E-1,0E0,0E0,7.639384E-2,3.2964745E-1,0E0,5.0454247E-1,8.951433E-1,4.820968E-1,1.1412555E-1,4.367424E-1,0E0,0E0,2.716156E-1,7.6095676E-1,0E0,0E0,0E0,0E0,0E0,0E0,0E0,0E0,5.385189E-1,0E0,0E0,0E0,0E0,0E0,0E0,0E0,0E0,0E0,0E0,0E0,0E0,0E0,0E0,0E0],"parents":[2147483647,0,0,1,1,2,2,3,3,4,4,5,5,6,6,7,7,8,8,9,9,11,11,12,12,13,13,14,14,15,15,16,16,17,17,18,18,19,19,22,22,25,25,26,26,28,28,29,29,30,30,31,31,32,32,35,35,36,36,45,45],"right_children":[2,4,6,8,10,12,14,16,18,20,-1,22,24,26,28,30,32,34,36,38,-1,-1,40,-1,-1,42,44,-1,46,48,50,52,54,-1,-1,56,58,-1,-1,-1,-1,-1,-1,-1,-1,60,-1,-1,-1,-1,-1,-1,-1,-1,-1,-1,-1,-1,-1,-1,-1],"split_conditions":[6E0,4E0,2E0,4E0,8E0,1.7E1,2.4470818E-4,6E0,4.6173585E-4,9.788327E-4,-2.9943539E-3,7.531461E-1,4.091E-1,8E0,1E0,2E0,3.0049492E-2,4.545E-1,1.223541E-3,2.2E0,-1.3146715E-3,2.1273051E-3,4.8941636E-4,-2.8425446E-3,7.543067E-4,2E0,5E0,4.2678383E-3,4.083292E-2,3.1595822E-2,2E0,7E0,3.6785446E-2,-3.7794863E-3,-8.060819E-5,1.9176838E-3,5E0,8.7673793E-4,-3.516349E-3,1.3414134E-3,-3.039862E-3,-3.14083E-3,2.033081E-3,3.1062457E-4,-2.0357883E-3,1E0,2.1847468E-3,-3.196146E-3,3.9042791E-4,1.6169489E-4,-2.489583E-3,-3.4223514E-4,3.8638334E-3,-2.9549436E-3,9.5495756E-4,-2.9177873E-3,1.1315244E-3,-3.4344583E-3,1.8489112E-5,2.5576812E-3,-5.2150566E-4],"split_indices":[22,15,4,1,4,2,26,4,13,26,0,39,32,4,9,22,13,32,26,33,0,0,26,0,0,0,1,0,13,13,4,4,13,0,0,13,8,0,0,0,0,0,0,0,0,8,0,0,0,0,0,0,0,0,0,0,0,0,0,0,0],"split_type":[0,0,0,0,0,0,0,0,0,0,0,0,0,0,0,0,0,0,0,0,0,0,0,0,0,0,0,0,0,0,0,0,0,0,0,0,0,0,0,0,0,0,0,0,0,0,0,0,0,0,0,0,0,0,0,0,0,0,0,0,0],"sum_hessian":[1.557E3,8.72E2,6.85E2,8.17E2,5.5E1,1.99E2,4.86E2,3.36E2,4.81E2,4.2E1,1.3E1,1.68E2,3.1E1,1.05E2,3.81E2,2.51E2,8.5E1,2.4E1,4.57E2,3.2E1,1E1,1.22E2,4.6E1,1.5E1,1.6E1,8.2E1,2.3E1,3.6E1,3.45E2,1.15E2,1.36E2,6.4E1,2.1E1,1E1,1.4E1,3.7E2,8.7E1,2.2E1,1E1,2.9E1,1.7E1,1.1E1,7.1E1,1.1E1,1.2E1,3.16E2,2.9E1,8.8E1,2.7E1,7.6E1,6E1,2.2E1,4.2E1,1E1,1.1E1,2.3E1,3.47E2,2.6E1,6.1E1,2.6E1,2.9E2],"tree_param":{"num_deleted":"0","num_feature":"40","num_nodes":"61","size_leaf_vector":"1"}},{"base_weights":[-1.27466E-4,-3.37104E-2,1.3031919E-2,-6.0457513E-2,2.6277374E-2,1.8726941E-2,-1.2444444E-1,-4.166666E-2,-2.2580644E-1,6.306306E-2,-1.2592591E-1,-5.8426927E-3,3.5781253E-2,-2.25E-1,1.1666666E-3,2.9E-3,-5.829959E-2,-4.7619045E-2,-1.6363634E-2,8.6585365E-2,-3.3333297E-3,1.0588235E-3,-1.090909E-2,9.068631E-3,-1.6578947E-1,9.166667E-2,2.1218078E-2,-1.3636363E-2,-2.1666666E-3,6.666667E-2,-7.7209294E-2,-5.454545E-3,2.7272727E-3,6.428572E-4,2.956522E-3,2.8333333E-3,-4.153846E-3,6.960785E-2,-1.1074915E-2,-3.3913043E-1,2.8124999E-3,1.0159883E-10,2.9754096E-3,3.46988E-2,-3.7894733E-2,2.8695653E-3,1.0159883E-10,-8.833333E-3,-1.7121211E-3,2.9583331E-3,1.0815358E-10,8.3253597E-4,-2.7878785E-3,-4.153846E-3,-1.6363634E-2,6.1280496E-4,2.625E-3,1.9736851E-4,-6.15E-3],"categories":[],"categories_nodes":[],"categories_segments":[],"categories_sizes":[],"default_left":[0,0,0,0,0,0,0,0,0,0,0,0,0,0,0,0,0,0,0,0,0,0,0,0,0,0,0,0,0,0,0,0,0,0,0,0,0,0,0,0,0,0,0,0,0,0,0,0,0,0,0,0,0,0,0,0,0,0,0],"id":6,"left_children":[1,3,5,7,9,11,13,15,17,19,21,23,25,27,-1,-1,29,31,-1,33,35,-1,-1,37,39,41,43,-1,-1,45,47,-1,-1,-1,-1,-1,-1,49,51,53,-1,-1,-1,55,57,-1,-1,-1,-1,-1,-1,-1,-1,-1,-1,-1,-1,-1,-1],"loss_changes":[6.938287E-1,7.1077746E-1,8.854765E-1,9.413477E-1,7.7499104E-1,4.5442483E-1,7.478334E-1,6.4068085E-1,1.739701E0,1.73648E-1,1.0475738E0,1.0628365E0,5.1893127E-1,9.491159E-1,0E0,0E0,5.8882684E-1,4.069264E-1,0E0,6.1817408E-2,4.0945297E-1,0E0,0E0,4.9831647E-1,1.7413687E0,9.09152E-2,4.0692842E-1,0E0,0E0,6.376812E-2,9.237801E-1,0E0,0E0,0E0,0E0,0E0,0E0,2.0592314E-1,9.7825164E-1,8.767407E-1,0E0,0E0,0E0,3.109471E-1,7.0736843E-1,0E0,0E0,0E0,0E0,0E0,0E0,0E0,0E0,0E0,0E0,0E0,0E0,0E0,0E0],"parents":[2147483647,0,0,1,1,2,2,3,3,4,4,5,5,6,6,7,7,8,8,9,9,10,10,11,11,12,12,13,13,16,16,17,17,19,19,20,20,23,23,24,24,25,25,26,26,29,29,30,30,37,37,38,38,39,39,43,43,44,44],"right_children":[2,4,6,8,10,12,14,16,18,20,22,24,26,28,-1,-1,30,32,-1,34,36,-1,-1,38,40,42,44,-1,-1,46,48,-1,-1,-1,-1,-1,-1,50,52,54,-1,-1,-1,56,58,-1,-1,-1,-1,-1,-1,-1,-1,-1,-1,-1,-1,-1,-1],"split_conditions":[3E0,6E-1,4E0,2E-1,5E0,3.712171E1,1.2E1,1E0,2.471E0,1.1E1,8.5647864E-4,3.2935562E1,9E0,5.8E0,1.3624023E-3,2.7837143E-3,1.4588166E1,4.8941636E-4,-3.6940842E-3,2E0,5E0,1.2501334E-3,-1.4308202E-3,3.1390134E-2,3.9184237E-1,1.5290383E0,1.2E1,-1.3073548E-3,-1.0682005E-3,9.691696E0,1.9416054E1,-1.0318118E-3,1.2775896E-3,-4.958031E-4,2.5904262E-3,2.8308982E-4,-3.078406E-3,4.714E0,8.5647864E-4,3E0,3.6187246E-3,-1.3048456E-3,2.3345235E-3,1.10490055E1,1.7E1,2.2294729E-3,-1.5092598E-3,-2.1056922E-3,-9.0478826E-4,2.4544592E-3,-1.8047949E-4,9.345153E-4,-2.836295E-3,-9.798658E-4,-4.2985347E-3,8.741852E-4,1.5112731E-3,-5.525376E-9,-1.9433205E-3],"split_indices":[5,14,15,14,1,31,10,9,33,8,26,31,2,15,0,0,31,26,0,10,4,0,0,38,39,18,8,0,0,18,31,0,0,0,0,0,0,33,26,10,0,0,0,18,2,0,0,0,0,0,0,0,0,0,0,0,0,0,0],"split_type":[0,0,0,0,0,0,0,0,0,0,0,0,0,0,0,0,0,0,0,0,0,0,0,0,0,0,0,0,0,0,0,0,0,0,0,0,0,0,0,0,0,0,0,0,0,0,0,0,0,0,0,0,0,0,0,0,0,0,0],"sum_hessian":[1.568E3,4.41E2,1.127E3,3.05E2,1.36E2,1.083E3,4.4E1,2.75E2,3E1,1.1E2,2.6E1,4.44E2,6.39E2,2.7E1,1.7E1,2.9E1,2.46E2,2E1,1E1,8.1E1,2.9E1,1.6E1,1E1,4.07E2,3.7E1,1.31E2,5.08E2,1E1,1.7E1,3.2E1,2.14E2,1E1,1E1,1.3E1,6.8E1,1.7E1,1.2E1,1.01E2,3.06E2,2.2E1,1.5E1,1E1,1.21E2,4.14E2,9.4E1,2.2E1,1E1,1.7E1,1.97E2,7.1E1,3E1,2.08E2,9.8E1,1.2E1,1E1,3.27E2,8.7E1,7.5E1,1.9E1],"tree_param":{"num_deleted":"0","num_feature":"40","num_nodes":"59","size_leaf_vector":"1"}},{"base_weights":[3.941517E-3,6.326666E-3,-1.44E-1,1.3976087E-2,-4.1981127E-2,2.500001E-4,-7.928572E-3,-6.133825E-3,2.7465671E-2,3.6250003E-2,-8.87218E-2,3.3464604E-3,-1.6129032E-1,4.808989E-2,1.6806759E-3,-5.454545E-3,7E-2,-3.5576917E-2,-2.6999998E-1,5.2348997E-2,-1.694444E-2,-9.789473E-3,2.7692309E-3,2.2983873E-2,7.929293E-2,7.529412E-2,-2.1245416E-2,2.95E-3,-2.7272725E-3,-1.6521738E-1,1.2195158E-3,-1.2166666E-2,-1.8461536E-3,2.0751879E-3,-2.470588E-3,-1.8031913E-3,9.0173417E-4,1.5789474E-3,-1.2692305E-3,2.6557378E-3,-9.3749986E-4,2.955224E-3,-3.1578934E-4,6.745563E-4,-2.7428567E-3,-9.749999E-3,2.500001E-4,-2.2758618E-3,1.2777778E-3],"categories":[],"categories_nodes":[],"categories_segments":[],"categories_sizes":[],"default_left":[0,0,0,0,0,0,0,0,0,0,0,0,0,0,0,0,0,0,0,0,0,0,0,0,0,0,0,0,0,0,0,0,0,0,0,0,0,0,0,0,0,0,0,0,0,0,0,0,0],"id":7,"left_children":[1,3,5,7,9,-1,-1,11,13,15,17,19,21,23,25,-1,27,29,31,33,35,-1,-1,37,39,41,43,-1,-1,45,47,-1,-1,-1,-1,-1,-1,-1,-1,-1,-1,-1,-1,-1,-1,-1,-1,-1,-1],"loss_changes":[5.559639E-1,5.7298356E-1,4.6029043E-1,3.6313355E-1,7.7841014E-1,0E0,0E0,7.918989E-1,4.2588723E-1,6.0151136E-1,1.2717172E0,5.0599426E-1,1.3274755E0,3.4678352E-1,6.040974E-1,0E0,3.2807574E-1,4.963134E-1,8.2278633E-1,3.4336296E-1,7.3214155E-1,0E0,0E0,4.8229152E-1,2.0482433E-1,1.7037213E-1,8.399345E-1,0E0,0E0,6.405073E-1,2.6473755E-1,0E0,0E0,0E0,0E0,0E0,0E0,0E0,0E0,0E0,0E0,0E0,0E0,0E0,0E0,0E0,0E0,0E0,0E0],"parents":[2147483647,0,0,1,1,2,2,3,3,4,4,7,7,8,8,9,9,10,10,11,11,12,12,13,13,14,14,16,16,17,17,18,18,19,19,20,20,23,23,24,24,25,25,26,26,29,29,30,30],"right_children":[2,4,6,8,10,-1,-1,12,14,16,18,20,22,24,26,-1,28,30,32,34,36,-1,-1,38,40,42,44,-1,-1,46,48,-1,-1,-1,-1,-1,-1,-1,-1,-1,-1,-1,-1,-1,-1,-1,-1,-1,-1],"split_conditions":[1.4286E0,8E0,2.7184946E1,3.671662E1,3E0,-9.905397E-4,-3.1240461E-3,3.4147682E1,3E0,1.0794817E1,2.6644854E-2,1.0514718E1,2.184016E-2,1.4694895E-2,2.4470818E-4,-2.8365448E-3,7E-1,2.5647213E1,5.909E-1,1.6863601E0,4.286E-1,-3.6674282E-3,9.407421E-3,5.238E-1,1E0,1.2E1,9.901902E1,2.1390854E-3,-2.730159E-3,7.3412457E-4,2.709751E-2,-2.6098671E-3,-2.6392606E-3,1.65144E-3,-1.4585559E-3,-8.7921706E-4,5.023104E-4,1.1181643E-3,-6.394983E-4,1.6003778E-3,-1.8437041E-3,2.8907377E-3,-3.2397764E-4,8.96032E-4,-1.341932E-3,-2.4669864E-3,-3.6964545E-4,-2.3409563E-4,3.5899074E-4],"split_indices":[32,4,31,31,3,0,0,31,4,31,13,31,13,13,26,0,14,31,32,39,32,0,0,32,35,8,31,0,0,26,38,0,0,0,0,0,0,0,0,0,0,0,0,0,0,0,0,0,0],"split_type":[0,0,0,0,0,0,0,0,0,0,0,0,0,0,0,0,0,0,0,0,0,0,0,0,0,0,0,0,0,0,0,0,0,0,0,0,0,0,0,0,0,0,0,0,0,0,0,0,0],"sum_hessian":[1.572E3,1.548E3,2.4E1,1.337E3,2.11E2,1.1E1,1.3E1,5.37E2,8E2,7.9E1,1.32E2,5.07E2,3E1,4.44E2,3.56E2,1E1,6.9E1,1.03E2,2.9E1,1.48E2,3.59E2,1.8E1,1.2E1,2.47E2,1.97E2,8.4E1,2.72E2,5.9E1,1E1,2.2E1,8.1E1,1.7E1,1.2E1,1.32E2,1.6E1,1.87E2,1.72E2,1.7E2,7.7E1,1.82E2,1.5E1,6.6E1,1.8E1,1.68E2,1.04E2,1.1E1,1.1E1,2.8E1,5.3E1],"tree_param":{"num_deleted":"0","num_feature":"40","num_nodes":"49","size_leaf_vector":"1"}},{"base_weights":[-4.4275736E-3,1.0034908E-2,-4.2431187E-2,-3.4687497E-2,2.7327694E-2,-3.2134287E-2,-7.6499996E-3,-1.2274364E-2,-1.75E-1,3.203518E-2,-9.0624996E-2,-1.6976124E-2,-1.707317E-1,7.6046E-4,-7.2E-3,-7.941176E-2,-1.3636363E-2,5.3229976E-2,1.1951223E-2,-1.00714285E-2,2.8421052E-3,-3.0473368E-2,2.9250002E-3,-3.666666E-2,-1.4749999E-2,3.841464E-2,-6.0999993E-2,-8.181817E-3,1.2500003E-2,-2.1999996E-2,6.420118E-2,-2.324561E-2,5.5737708E-2,-9.24092E-3,-2.0833333E-1,-3.473684E-3,2.75E-3,2.6413044E-3,-7.397259E-4,-1.090909E-2,-6.9999986E-4,2.7857143E-3,-2.7272725E-3,1.425E-3,-8.181817E-3,9.160306E-4,2.5528846E-3,-5.1891888E-3,1.718751E-4,2.0946746E-3,-3.1999997E-3,2.6136375E-4,-3.8249998E-3,4.6153853E-4,-9.625E-3],"categories":[],"categories_nodes":[],"categories_segments":[],"categories_sizes":[],"default_left":[0,0,0,0,0,0,0,0,0,0,0,0,0,0,0,0,0,0,0,0,0,0,0,0,0,0,0,0,0,0,0,0,0,0,0,0,0,0,0,0,0,0,0,0,0,0,0,0,0,0,0,0,0,0,0],"id":8,"left_children":[1,3,5,7,9,11,-1,13,15,17,19,21,23,25,-1,27,-1,29,31,-1,-1,33,-1,35,-1,37,39,-1,41,43,45,47,49,51,53,-1,-1,-1,-1,-1,-1,-1,-1,-1,-1,-1,-1,-1,-1,-1,-1,-1,-1,-1,-1],"loss_changes":[8.6938536E-1,8.8723564E-1,9.4612247E-1,1.0042014E0,4.6210372E-1,8.731696E-1,0E0,8.224192E-1,1.1396389E0,3.382014E-1,1.4855708E0,5.854785E-1,1.7460445E0,6.139601E-1,0E0,6.0752004E-1,0E0,3.208282E-1,6.3316536E-1,0E0,0E0,1.2744988E0,0E0,3.152368E-1,0E0,5.1552343E-1,1.1314454E0,0E0,2.0787337E-1,8.842318E-1,2.3517358E-1,9.901273E-1,4.2604733E-1,6.4441323E-1,9.109937E-1,0E0,0E0,0E0,0E0,0E0,0E0,0E0,0E0,0E0,0E0,0E0,0E0,0E0,0E0,0E0,0E0,0E0,0E0,0E0,0E0],"parents":[2147483647,0,0,1,1,2,2,3,3,4,4,5,5,7,7,8,8,9,9,10,10,11,11,12,12,13,13,15,15,17,17,18,18,21,21,23,23,25,25,26,26,28,28,29,29,30,30,31,31,32,32,33,33,34,34],"right_children":[2,4,6,8,10,12,-1,14,16,18,20,22,24,26,-1,28,-1,30,32,-1,-1,34,-1,36,-1,38,40,-1,42,44,46,48,50,52,54,-1,-1,-1,-1,-1,-1,-1,-1,-1,-1,-1,-1,-1,-1,-1,-1,-1,-1,-1,-1],"split_conditions":[8.5647864E-4,3E0,4.3E0,8E0,4E0,1E0,-1.3180086E-3,1E0,1.1270463E1,7.9321055E0,1E0,4.4447254E-2,5.447171E1,5.627255E-1,-2.3503115E-3,1.3089837E-1,-2.4288453E-3,2E0,1.1221474E1,-2.7151103E-3,1.6150988E-3,3.9805334E-2,2.6990748E-3,4.091E-1,-1.5373351E-3,4E0,1.909E0,-2.8405904E-3,9E0,1.3077979E0,1.1773257E-2,2.273E-1,1E0,1.6863601E0,8E0,-3.1833758E-3,9.95044E-4,2.9415223E-3,-4.6409434E-4,-3.4160337E-3,-3.924979E-4,1.4109827E-3,-3.3801113E-4,3.745387E-3,-2.0961275E-3,4.1393493E-4,1.8316662E-3,-2.6132825E-3,3.72044E-5,2.1310756E-3,-2.1150731E-3,1.4570172E-4,-2.1289983E-3,-2.14003E-3,-2.2915406E-3],"split_indices":[26,5,15,4,15,35,0,32,18,18,30,13,31,39,0,39,0,8,18,0,0,13,0,32,0,4,33,0,4,39,13,32,36,39,1,0,0,0,0,0,0,0,0,0,0,0,0,0,0,0,0,0,0,0,0],"split_type":[0,0,0,0,0,0,0,0,0,0,0,0,0,0,0,0,0,0,0,0,0,0,0,0,0,0,0,0,0,0,0,0,0,0,0,0,0,0,0,0,0,0,0,0,0,0,0,0,0,0,0,0,0,0,0],"sum_hessian":[1.58E3,1.145E3,4.35E2,3.19E2,8.26E2,4.16E2,1.9E1,2.76E2,4.3E1,7.95E2,3.1E1,3.76E2,4E1,2.62E2,1.4E1,3.3E1,1E1,3.86E2,4.09E2,1.3E1,1.8E1,3.37E2,3.9E1,2.9E1,1.1E1,1.63E2,9.9E1,1E1,2.3E1,4.9E1,3.37E2,2.27E2,1.82E2,3.02E2,3.5E1,1.8E1,1.1E1,9.1E1,7.2E1,1E1,8.9E1,1.3E1,1E1,3.9E1,1E1,1.3E2,2.07E2,3.6E1,1.91E2,1.68E2,1.4E1,2.63E2,3.9E1,1.2E1,2.3E1],"tree_param":{"num_deleted":"0","num_feature":"40","num_nodes":"55","size_leaf_vector":"1"}},{"base_weights":[6.6881063E-3,1.2728555E-2,-5.746268E-2,-2.1897806E-2,2.6778659E-2,-1.6734692E-1,5.813957E-3,-1.791041E-3,-1.090909E-1,1.8988768E-2,8.292683E-2,-3.2692307E-1,1.2500003E-2,3.013699E-2,-3.6428568E-3,-5.343511E-2,3.1219516E-2,-2.8846154E-1,-1.7307688E-2,2.9126218E-2,-2.4117643E-2,2.970297E-3,8.6956555E-3,-5.785714E-3,-1.3384614E-2,-2.7272725E-3,2.7857143E-3,2.88E-3,-4.0816288E-3,-1.471698E-1,1.0126586E-2,4.62766E-2,-3.833333E-3,-2.7272725E-3,-1.21875E-2,4.3243244E-2,-4.6874997E-3,7.388535E-2,1.663717E-2,1.1200003E-2,-1.1956521E-1,2.7692309E-3,-2.7272725E-3,-4.153846E-3,4.3243244E-2,-1.3714284E-3,-9.789473E-3,1.7884616E-3,-2.4642856E-3,2.5975609E-3,4.485982E-4,2.8888888E-3,-2.7272725E-3,1.443038E-3,2.9620253E-3,9.916667E-4,-3.6407754E-4,1.4545455E-3,-3.7777773E-3,-6.7499997E-3,1.2631579E-3,2.8571428E-3,-7.0588227E-4],"categories":[],"categories_nodes":[],"categories_segments":[],"categories_sizes":[],"default_left":[0,0,0,0,0,0,0,0,0,0,0,0,0,0,0,0,0,0,0,0,0,0,0,0,0,0,0,0,0,0,0,0,0,0,0,0,0,0,0,0,0,0,0,0,0,0,0,0,0,0,0,0,0,0,0,0,0,0,0,0,0,0,0],"id":9,"left_children":[1,3,5,7,9,11,13,15,17,19,21,23,25,27,-1,29,31,33,35,37,39,-1,41,-1,-1,-1,-1,-1,43,45,47,49,-1,-1,-1,51,-1,53,55,57,59,-1,-1,-1,61,-1,-1,-1,-1,-1,-1,-1,-1,-1,-1,-1,-1,-1,-1,-1,-1,-1,-1],"loss_changes":[6.032931E-1,6.9239503E-1,9.326893E-1,7.203579E-1,4.4106215E-1,1.410351E0,2.6982296E-1,5.72776E-1,1.2626748E0,3.8962266E-1,1.4598447E-1,3.2956076E-1,2.0787337E-1,1.6491497E-1,0E0,7.819799E-1,4.966904E-1,5.680723E-1,4.4423723E-1,4.0180898E-1,5.744063E-1,0E0,1.9993918E-1,0E0,0E0,0E0,0E0,0E0,3.1760365E-1,9.483762E-1,3.6563498E-1,2.3607498E-1,0E0,0E0,0E0,2.7209026E-1,0E0,9.584123E-2,2.6731154E-1,6.4519536E-1,7.935755E-1,0E0,0E0,0E0,1.3069877E-1,0E0,0E0,0E0,0E0,0E0,0E0,0E0,0E0,0E0,0E0,0E0,0E0,0E0,0E0,0E0,0E0,0E0,0E0],"parents":[2147483647,0,0,1,1,2,2,3,3,4,4,5,5,6,6,7,7,8,8,9,9,10,10,11,11,12,12,13,13,15,15,16,16,17,17,18,18,19,19,20,20,22,22,28,28,29,29,30,30,31,31,35,35,37,37,38,38,39,39,40,40,44,44],"right_children":[2,4,6,8,10,12,14,16,18,20,22,24,26,28,-1,30,32,34,36,38,40,-1,42,-1,-1,-1,-1,-1,44,46,48,50,-1,-1,-1,52,-1,54,56,58,60,-1,-1,-1,62,-1,-1,-1,-1,-1,-1,-1,-1,-1,-1,-1,-1,-1,-1,-1,-1,-1,-1],"split_conditions":[1E0,4.7518682E0,2.709751E-2,3.8804674E0,1.88571E2,1E0,3E0,1.9467994E0,4E0,7E0,3.846641E2,1.1E1,1.905E-1,4.8696356E0,-1.587192E-3,3.4460294E-1,4.5213294E0,3.636E-1,1.4682491E-3,6.7546797E0,1.2E1,2.2308007E-3,5E0,-1.8343548E-3,-2.7313756E-3,-6.4942794E-4,2.8835936E-3,1.7122473E-3,6.649175E0,7.1204765E1,1.6868117E0,5.455E-1,-3.396782E-3,-2.7062818E-3,-2.646759E-3,1.135342E2,-2.4986544E-3,1.6342407E-2,1E0,2.6644854E-2,1E0,2.9270537E-3,-3.6644256E-3,-2.9097793E-3,6.117705E-4,-4.8596508E-4,-3.7573858E-3,1.1376682E-3,-2.4292178E-3,2.3137047E-3,5.092644E-5,5.2390327E-3,-2.2652645E-3,1.732318E-3,3.1800398E-3,8.7928487E-4,-8.006402E-5,1.2597562E-3,-1.427516E-3,-1.788518E-3,1.3312327E-3,3.4767245E-3,-1.4771646E-3],"split_indices":[35,18,38,18,31,12,25,18,5,4,31,2,32,18,0,39,39,32,26,18,10,0,5,0,0,0,0,0,18,31,18,32,0,0,0,31,0,13,19,13,37,0,0,0,26,0,0,0,0,0,0,0,0,0,0,0,0,0,0,0,0,0,0],"split_type":[0,0,0,0,0,0,0,0,0,0,0,0,0,0,0,0,0,0,0,0,0,0,0,0,0,0,0,0,0,0,0,0,0,0,0,0,0,0,0,0,0,0,0,0,0,0,0,0,0,0,0,0,0,0,0,0,0,0,0,0,0,0,0],"sum_hessian":[1.554E3,1.421E3,1.33E2,4.1E2,1.011E3,4.8E1,8.5E1,3.34E2,7.6E1,8.89E2,1.22E2,2.5E1,2.3E1,7.2E1,1.3E1,1.3E2,2.04E2,2.5E1,5.1E1,7.2E2,1.69E2,1E2,2.2E1,1.3E1,1.2E1,1E1,1.3E1,2.4E1,4.8E1,5.2E1,7.8E1,1.87E2,1.7E1,1E1,1.5E1,3.6E1,1.5E1,1.56E2,5.64E2,1.24E2,4.5E1,1.2E1,1E1,1.2E1,3.6E1,3.4E1,1.8E1,5.1E1,2.7E1,8.1E1,1.06E2,2.6E1,1E1,7.8E1,7.8E1,3.59E2,2.05E2,9.8E1,2.6E1,2.7E1,1.8E1,2E1,1.6E1],"tree_param":{"num_deleted":"0","num_feature":"40","num_nodes":"63","size_leaf_vector":"1"}},{"base_weights":[-3.8192195E-3,-2.1577511E-2,3.7953094E-2,-5.056886E-3,-6.325878E-2,7.722222E-2,1.3448279E-2,8.3333336E-2,-1.3085395E-2,-4.5895517E-2,-1.6304347E-1,8.764706E-2,-2.7272725E-3,4.774194E-2,-2.573529E-2,2.9464285E-3,1.0159883E-10,-2.5993373E-2,5.040651E-2,3.068182E-2,-8.287292E-2,8.6956555E-3,-3.2083333E-1,6.1111115E-2,2.9743589E-3,-5.9701456E-3,8.764045E-2,4.8333336E-2,-8.3116874E-2,-1.0709677E-1,2.0000036E-3,-6.461538E-3,8.1081085E-2,-8.214285E-2,8.196721E-2,-9.470588E-2,2.75E-3,-2.7272725E-3,2.7692309E-3,-1.3384614E-2,-4.75E-3,4.545458E-3,2.909091E-3,4.7500003E-2,-8.214285E-2,2.500001E-4,2.9615385E-3,2.909091E-3,-1.0714282E-2,2.7857143E-3,-1.203125E-1,-4.663636E-3,3.2608703E-4,1.3228348E-3,-4.3518504E-4,1.3636374E-4,2.9666666E-3,2.8333333E-3,-1.090909E-2,1.0159883E-10,2.9411765E-3,-3.5244753E-3,7.5000006E-4,-2.7272725E-3,2.75E-3,-1.8461536E-3,2.8928572E-3,8.0000004E-4,-5.785714E-3,-2.8124996E-3,2.7692309E-3,-1.090909E-2,-2.0555553E-3],"categories":[],"categories_nodes":[],"categories_segments":[],"categories_sizes":[],"default_left":[0,0,0,0,0,0,0,0,0,0,0,0,0,0,0,0,0,0,0,0,0,0,0,0,0,0,0,0,0,0,0,0,0,0,0,0,0,0,0,0,0,0,0,0,0,0,0,0,0,0,0,0,0,0,0,0,0,0,0,0,0,0,0,0,0,0,0,0,0,0,0,0,0],"id":10,"left_children":[1,3,5,7,9,11,13,15,17,19,21,23,-1,25,27,-1,-1,29,31,33,35,37,39,41,-1,43,45,47,49,51,53,-1,55,57,59,61,-1,-1,-1,-1,-1,63,-1,65,67,-1,-1,-1,69,-1,71,-1,-1,-1,-1,-1,-1,-1,-1,-1,-1,-1,-1,-1,-1,-1,-1,-1,-1,-1,-1,-1,-1],"loss_changes":[1.1661946E0,7.5920665E-1,4.5027202E-1,5.6241703E-1,5.348171E-1,3.234614E-1,3.9091554E-1,8.1845224E-2,5.96305E-1,7.6141983E-1,1.2493296E0,4.5810938E-2,0E0,3.3269325E-1,5.8204114E-1,0E0,0E0,1.3715105E0,1.0202862E0,5.1592374E-1,3.82504E-1,1.9993918E-1,4.1810894E-1,1.0909094E-1,0E0,2.767905E-1,7.7365994E-2,1.7335065E-1,5.151725E-1,8.85901E-1,3.1330815E-1,0E0,1.5083593E-1,1.4261724E0,8.0359995E-2,4.6644163E-1,0E0,0E0,0E0,0E0,0E0,1.9128788E-1,0E0,2.1933791E-1,3.4245235E-1,0E0,0E0,0E0,2.4817993E-1,0E0,7.816577E-1,0E0,0E0,0E0,0E0,0E0,0E0,0E0,0E0,0E0,0E0,0E0,0E0,0E0,0E0,0E0,0E0,0E0,0E0,0E0,0E0,0E0,0E0],"parents":[2147483647,0,0,1,1,2,2,3,3,4,4,5,5,6,6,7,7,8,8,9,9,10,10,11,11,13,13,14,14,17,17,18,18,19,19,20,20,21,21,22,22,23,23,25,25,26,26,27,27,28,28,29,29,30,30,32,32,33,33,34,34,35,35,41,41,43,43,44,44,48,48,50,50],"right_children":[2,4,6,8,10,12,14,16,18,20,22,24,-1,26,28,-1,-1,30,32,34,36,38,40,42,-1,44,46,48,50,52,54,-1,56,58,60,62,-1,-1,-1,-1,-1,64,-1,66,68,-1,-1,-1,70,-1,72,-1,-1,-1,-1,-1,-1,-1,-1,-1,-1,-1,-1,-1,-1,-1,-1,-1,-1,-1,-1,-1,-1],"split_conditions":[9E0,8.5647864E-4,3E0,1E0,1E0,2.1023376E0,8.818431E0,7E0,6E-1,1E1,4E0,4E0,-3.0608773E-3,4.2673736E0,3.6706228E-4,2.5659946E-3,-1.5341734E-3,3E0,1.905E-1,6E0,2E0,1.4878746E-2,1.7129573E-3,3.182E-1,1.4640286E-3,1.5E1,3E0,9E0,3E0,1E0,1E0,-3.507226E-3,2E0,1E0,2.8634973E0,1.0832606E1,6.0967198E-3,-1.8463304E-3,6.1004357E-3,-3.158071E-3,-1.053182E-3,4.8941636E-4,3.1404938E-3,1.2487215E-2,2.4206948E-2,-8.957763E-4,2.4625096E-3,4.8201423E-4,8.5066445E-3,3.5511467E-3,1.0256393E1,-1.905436E-3,-1.78239E-4,1.5100396E-3,-2.6351493E-4,-7.1394944E-4,1.9396412E-3,5.737526E-4,-3.3080527E-3,3.7009778E-4,3.4889586E-3,-1.8782004E-3,5.9001637E-4,-1.6857557E-4,2.5884851E-3,-2.9919199E-3,3.7064633E-4,3.5514662E-4,-2.1404845E-3,-3.963666E-4,6.148155E-3,-1.7333808E-3,-5.798918E-4],"split_indices":[22,26,10,9,14,39,18,4,14,2,1,1,0,18,26,0,0,5,32,8,7,13,26,32,0,22,2,8,8,12,22,0,10,19,18,18,0,0,0,0,0,26,0,13,13,0,0,0,13,0,18,0,0,0,0,0,0,0,0,0,0,0,0,0,0,0,0,0,0,0,0,0,0],"split_type":[0,0,0,0,0,0,0,0,0,0,0,0,0,0,0,0,0,0,0,0,0,0,0,0,0,0,0,0,0,0,0,0,0,0,0,0,0,0,0,0,0,0,0,0,0,0,0,0,0,0,0,0,0,0,0,0,0,0,0,0,0,0,0,0,0,0,0,0,0,0,0,0,0],"sum_hessian":[1.57E3,1.102E3,4.68E2,7.9E2,3.12E2,1.79E2,2.89E2,6.5E1,7.25E2,2.67E2,4.5E1,1.69E2,1E1,1.54E2,1.35E2,5.5E1,1E1,6.03E2,1.22E2,8.7E1,1.8E2,2.2E1,2.3E1,5.3E1,1.16E2,6.6E1,8.8E1,5.9E1,7.6E1,1.54E2,4.49E2,1.2E1,1.1E2,2.7E1,6E1,1.69E2,1.1E1,1E1,1.2E1,1.2E1,1.1E1,2.1E1,3.2E1,3.9E1,2.7E1,1.1E1,7.7E1,3.2E1,2.7E1,1.3E1,6.3E1,1.09E2,4.5E1,1.26E2,3.23E2,2.1E1,8.9E1,1.7E1,1E1,1E1,5E1,1.42E2,2.7E1,1E1,1.1E1,1.2E1,2.7E1,1.4E1,1.3E1,1.5E1,1.2E1,1E1,5.3E1],"tree_param":{"num_deleted":"0","num_feature":"40","num_nodes":"73","size_leaf_vector":"1"}},{"base_weights":[-6.5688738E-3,3.442137E-2,-1.777597E-2,5.3000003E-2,-1.1315789E-1,-2.9002074E-2,2.2140225E-2,-2.058823E-2,6.2172286E-2,-2.375E-1,2.8E-3,-1.2799999E-1,-2.0608105E-2,-4.6499996E-3,3.6111113E-2,5.4166667E-2,-5.454545E-3,-2.3999996E-2,7.0781894E-2,-1.225E-2,-1.8461536E-3,-3.6538456E-2,-3.2083333E-1,-4.561403E-2,-2.040779E-4,8.705883E-2,1.0119051E-2,2.7857143E-3,1.0159883E-10,-3.1999997E-3,2.7272727E-3,7.763158E-2,-9.3749986E-4,4.1666668E-2,-5.9999996E-3,-2.25E-3,-1.5692307E-2,-2.8273806E-2,-1.359375E-1,6.36943E-3,-4.6499996E-3,2.96E-3,1.0159883E-10,-6.1999995E-2,4.0336136E-2,2.671875E-3,4.864866E-4,2.8846154E-3,-2.7272725E-3,-1.2956809E-3,2.9166667E-3,-6.3571422E-3,2.6086965E-4,-9.027776E-4,1.1132814E-3,-7.499989E-5,-8.181817E-3,1.1018464E-10,2.9387753E-3],"categories":[],"categories_nodes":[],"categories_segments":[],"categories_sizes":[],"default_left":[0,0,0,0,0,0,0,0,0,0,0,0,0,0,0,0,0,0,0,0,0,0,0,0,0,0,0,0,0,0,0,0,0,0,0,0,0,0,0,0,0,0,0,0,0,0,0,0,0,0,0,0,0,0,0,0,0,0,0],"id":11,"left_children":[1,3,5,7,9,11,13,15,17,19,-1,21,23,-1,25,27,-1,29,31,-1,-1,33,35,37,39,41,43,-1,-1,-1,-1,45,-1,47,-1,-1,-1,49,51,53,-1,-1,-1,55,57,-1,-1,-1,-1,-1,-1,-1,-1,-1,-1,-1,-1,-1,-1],"loss_changes":[7.209222E-1,9.29991E-1,5.527055E-1,2.0377177E-1,9.978376E-1,7.967703E-1,6.7626977E-1,4.1964126E-1,1.9978869E-1,6.963142E-1,0E0,1.3110397E0,4.5306745E-1,0E0,3.3282652E-1,5.0297618E-2,0E0,2.4717577E-1,1.7225528E-1,0E0,0E0,6.7307687E-1,1.1540062E0,6.2108195E-1,4.995878E-1,8.589804E-2,3.6861104E-1,0E0,0E0,0E0,0E0,1.5861952E-1,0E0,2.687937E-1,0E0,0E0,0E0,6.331384E-1,7.050352E-1,5.2903265E-1,0E0,0E0,0E0,6.262318E-1,2.7659065E-1,0E0,0E0,0E0,0E0,0E0,0E0,0E0,0E0,0E0,0E0,0E0,0E0,0E0,0E0],"parents":[2147483647,0,0,1,1,2,2,3,3,4,4,5,5,6,6,7,7,8,8,9,9,11,11,12,12,14,14,15,15,17,17,18,18,21,21,22,22,23,23,24,24,25,25,26,26,31,31,33,33,37,37,38,38,39,39,43,43,44,44],"right_children":[2,4,6,8,10,12,14,16,18,20,-1,22,24,-1,26,28,-1,30,32,-1,-1,34,36,38,40,42,44,-1,-1,-1,-1,46,-1,48,-1,-1,-1,50,52,54,-1,-1,-1,56,58,-1,-1,-1,-1,-1,-1,-1,-1,-1,-1,-1,-1,-1,-1],"split_conditions":[2.4470818E-4,1.7E1,1E0,1.818E-1,1.3223353E-2,2.3326572E-2,1.04775E-3,1.4506095E-2,5E0,4.0535534E1,1.4452408E-3,1E-1,3.671662E1,-4.4594004E-4,2.7184946E1,5E0,-2.817237E-3,8E0,9E0,-3.341574E-3,-2.651147E-3,6.145897E1,6E0,2.9652603E1,1.0455E0,1.3963425E0,3E0,5.4835705E-3,-1.883906E-4,-3.8641405E-3,4.663347E-3,6.849315E-2,-1.3759767E-3,3.8470256E-1,-3.8331547E-3,-2.8361434E-3,-2.171271E-3,2.649694E1,1E1,4.8941636E-4,-2.3987505E-3,1.1292032E-3,-2.6430255E-3,1.2313397E2,1.0963022E2,2.6986443E-3,4.9746155E-5,2.0296287E-3,-1.197433E-3,-9.851101E-4,1.9445603E-3,-2.7658595E-3,4.1852974E-5,-3.9935252E-4,9.447983E-4,-5.7035355E-5,-2.449338E-3,-1.3671624E-5,2.4178645E-3],"split_indices":[26,2,24,32,13,38,13,13,0,31,0,14,31,0,31,4,0,8,4,0,0,31,8,31,32,39,1,0,0,0,0,38,0,39,0,0,0,31,8,26,0,0,0,31,31,0,0,0,0,0,0,0,0,0,0,0,0,0,0],"split_type":[0,0,0,0,0,0,0,0,0,0,0,0,0,0,0,0,0,0,0,0,0,0,0,0,0,0,0,0,0,0,0,0,0,0,0,0,0,0,0,0,0,0,0,0,0,0,0,0,0,0,0,0,0,0,0,0,0,0,0],"sum_hessian":[1.567E3,3.36E2,1.231E3,2.99E2,3.7E1,9.61E2,2.7E2,3.3E1,2.66E2,2.3E1,1.4E1,7.4E1,8.87E2,1.9E1,2.51E2,2.3E1,1E1,2.4E1,2.42E2,1.1E1,1.2E1,5.1E1,2.3E1,3.98E2,4.89E2,8.4E1,1.67E2,1.3E1,1E1,1.4E1,1E1,2.27E2,1.5E1,3.5E1,1.6E1,1.1E1,1.2E1,3.35E2,6.3E1,4.7E2,1.9E1,7.4E1,1E1,4.9E1,1.18E2,1.91E2,3.6E1,2.5E1,1E1,3E2,3.5E1,4.1E1,2.2E1,2.15E2,2.55E2,3.9E1,1E1,7E1,4.8E1],"tree_param":{"num_deleted":"0","num_feature":"40","num_nodes":"59","size_leaf_vector":"1"}},{"base_weights":[5.930603E-3,-7.7130008E-3,3.8216565E-2,4.697161E-3,-4.0390875E-2,7.3979594E-2,1.2681163E-2,2.084034E-2,-3.9999995E-2,2.083337E-3,-7.743902E-2,-7.0588227E-4,8.277778E-2,-4.242424E-2,4.325843E-2,6.1621625E-2,2.4330937E-3,-1.7857138E-2,-7.6499996E-3,-3.5576917E-2,2.9268293E-3,-1.065E-2,-3.8620684E-2,9.303798E-2,8.6956555E-3,2.7397296E-3,-1.6296296E-1,6.796875E-2,-1.9607838E-2,-1.6499999E-3,7.530121E-2,-1.17857136E-1,1.119792E-2,-6.9026545E-2,5.119048E-2,-8.333333E-2,4.6153847E-2,-8.181817E-3,-1.9259255E-2,2.9752066E-3,7.105263E-2,2.7692309E-3,-2.7272725E-3,2.9E-3,-6.136363E-2,2.7272727E-3,-9.529411E-3,8.9E-2,-6.896548E-3,-5.785714E-3,4.4736844E-2,-2.25E-3,2.5935483E-3,-9.199999E-3,2.7857143E-3,-3.749999E-4,1.4117646E-3,-3.296703E-3,2.8695653E-3,1.0903289E-10,2.9318181E-3,-9.444443E-4,-8.76923E-3,2.8965517E-3,-2.7272725E-3,-2.8548383E-3,1.3378379E-3,1.0159883E-10,2.8928572E-3,2.7692309E-3,-3.6562497E-3,2.962963E-3,1.35E-3,2.8124999E-3,-3.6428568E-3,-2.7272725E-3,2.8928572E-3],"categories":[],"categories_nodes":[],"categories_segments":[],"categories_sizes":[],"default_left":[0,0,0,0,0,0,0,0,0,0,0,0,0,0,0,0,0,0,0,0,0,0,0,0,0,0,0,0,0,0,0,0,0,0,0,0,0,0,0,0,0,0,0,0,0,0,0,0,0,0,0,0,0,0,0,0,0,0,0,0,0,0,0,0,0,0,0,0,0,0,0,0,0,0,0,0,0],"id":12,"left_children":[1,3,5,7,9,11,13,15,17,19,21,-1,23,25,27,29,31,33,-1,35,-1,-1,37,39,41,43,45,47,49,-1,51,53,55,57,59,61,63,-1,65,-1,67,-1,-1,-1,69,-1,-1,71,73,-1,75,-1,-1,-1,-1,-1,-1,-1,-1,-1,-1,-1,-1,-1,-1,-1,-1,-1,-1,-1,-1,-1,-1,-1,-1,-1,-1],"loss_changes":[6.984823E-1,4.5236424E-1,4.291901E-1,5.84571E-1,4.8325366E-1,1.7009652E-1,4.6688762E-1,4.4649938E-1,1.019E0,5.2125347E-1,1.7533E0,0E0,1.360085E-1,5.3940314E-1,2.7784604E-1,2.9927862E-1,4.346465E-1,6.960261E-1,0E0,4.097756E-1,0E0,0E0,6.5198E-1,1.4266491E-2,1.9993918E-1,4.4546717E-1,1.0891662E0,2.0215124E-1,5.7715905E-1,0E0,2.846865E-1,1.1424524E0,3.2692248E-1,7.709288E-1,2.0010819E-1,7.0595443E-1,2.78177E-1,0E0,6.585397E-1,0E0,6.851505E-2,0E0,0E0,0E0,4.203999E-1,0E0,0E0,3.8523376E-2,3.4567422E-1,0E0,2.7521363E-1,0E0,0E0,0E0,0E0,0E0,0E0,0E0,0E0,0E0,0E0,0E0,0E0,0E0,0E0,0E0,0E0,0E0,0E0,0E0,0E0,0E0,0E0,0E0,0E0,0E0,0E0],"parents":[2147483647,0,0,1,1,2,2,3,3,4,4,5,5,6,6,7,7,8,8,9,9,10,10,12,12,13,13,14,14,15,15,16,16,17,17,19,19,22,22,23,23,24,24,25,25,26,26,27,27,28,28,30,30,31,31,32,32,33,33,34,34,35,35,36,36,38,38,40,40,44,44,47,47,48,48,50,50],"right_children":[2,4,6,8,10,12,14,16,18,20,22,-1,24,26,28,30,32,34,-1,36,-1,-1,38,40,42,44,46,48,50,-1,52,54,56,58,60,62,64,-1,66,-1,68,-1,-1,-1,70,-1,-1,72,74,-1,76,-1,-1,-1,-1,-1,-1,-1,-1,-1,-1,-1,-1,-1,-1,-1,-1,-1,-1,-1,-1,-1,-1,-1,-1,-1,-1],"split_conditions":[9E0,8.5647864E-4,3E0,9.901902E1,1.9655393E-2,3E0,3.636E-1,2E0,9.545E-1,1.8353114E-3,2.273E-1,-1.5334297E-3,9.4129616E-1,1.2E1,2.5714967E-2,9.298392E0,1E0,1E0,-3.5043294E-3,2.841111E-1,2.994498E-3,-2.8800971E-3,5.7560453E0,8.5647864E-4,3E0,4.0535534E1,1.3E1,3.787959E-1,3.4482267E-2,-1.4002451E-3,1.148749E-3,2.64E0,5E0,1.2E1,5E0,1.5906031E-3,6.364E-1,-3.3738168E-3,7E0,1.3460466E-3,9.788327E-4,1.506577E-3,-1.3974896E-3,2.334226E-3,5E0,5.2790022E-3,-1.4116646E-3,1.9E1,5.455E-1,-2.2982613E-3,1.1E1,-2.0923007E-3,2.3572335E-3,-3.2158662E-3,3.8411538E-3,-2.2455672E-4,9.4705186E-4,-2.0356989E-3,4.7157073E-4,-2.1110566E-3,3.125257E-3,-3.7821653E-4,-2.7437813E-3,1.1284415E-3,-2.5051646E-3,-1.8924526E-3,4.799994E-4,1.9450732E-4,5.171615E-4,3.1707706E-3,-3.7565856E-4,2.0889507E-3,5.856698E-5,3.5223204E-3,-1.1687786E-3,-1.7534113E-3,2.3517215E-3],"split_indices":[22,26,4,31,13,2,32,22,32,26,32,0,39,10,13,31,1,30,0,39,0,0,31,26,10,31,22,39,13,0,13,33,3,2,1,26,32,0,8,0,26,0,0,0,8,0,0,2,32,0,22,0,0,0,0,0,0,0,0,0,0,0,0,0,0,0,0,0,0,0,0,0,0,0,0,0,0],"split_type":[0,0,0,0,0,0,0,0,0,0,0,0,0,0,0,0,0,0,0,0,0,0,0,0,0,0,0,0,0,0,0,0,0,0,0,0,0,0,0,0,0,0,0,0,0,0,0,0,0,0,0,0,0,0,0,0,0,0,0,0,0,0,0,0,0,0,0,0,0,0,0,0,0,0,0,0,0],"sum_hessian":[1.584E3,1.114E3,4.7E2,8.08E2,3.06E2,1.95E2,2.75E2,5.94E2,2.14E2,1.43E2,1.63E2,1.6E1,1.79E2,9.8E1,1.77E2,1.84E2,4.1E2,1.95E2,1.9E1,1.03E2,4E1,1.9E1,1.44E2,1.57E2,2.2E1,7.2E1,2.6E1,1.27E2,5E1,1.9E1,1.65E2,2.7E1,3.83E2,1.12E2,8.3E1,6.5E1,3.8E1,1E1,1.34E2,1.2E2,3.7E1,1.2E1,1E1,2.9E1,4.3E1,1E1,1.6E1,9.9E1,2.8E1,1.3E1,3.7E1,1.1E1,1.54E2,1.4E1,1.3E1,2.31E2,1.52E2,9E1,2.2E1,4E1,4.3E1,5.3E1,1.2E1,2.8E1,1E1,6.1E1,7.3E1,1E1,2.7E1,1.2E1,3.1E1,8E1,1.9E1,1.5E1,1.3E1,1E1,2.7E1],"tree_param":{"num_deleted":"0","num_feature":"40","num_nodes":"77","size_leaf_vector":"1"}},{"base_weights":[3.807744E-3,3.9820362E-2,-5.673755E-3,1.8817207E-2,6.577181E-2,-2.8915624E-3,-1.44E-1,4.409449E-2,-3.4999996E-2,8.3333336E-2,-2.9166663E-2,5.1587306E-2,-9.017853E-3,-7.928572E-3,2.500001E-4,7.46988E-2,-1.3333329E-2,-8.40909E-2,2.8235293E-3,2.9722222E-3,-3.1578934E-4,-3.6428568E-3,2.7272727E-3,6.4347826E-2,-2.25E-3,-6.68473E-3,-5.785714E-3,2.9508197E-3,8.6956555E-3,2.8124999E-3,-6.999999E-2,1.2500003E-2,-1.9047618E-1,7.961165E-2,-1.8461536E-3,1.1090577E-2,-2.3633152E-2,-2.7272725E-3,2.7692309E-3,-4.6874997E-3,8.0000004E-4,2.7857143E-3,-2.7272725E-3,-2.7272725E-3,-8.181817E-3,2.9625E-3,3.750001E-4,-1.6136908E-4,1.8496241E-3,-3.7333332E-3,-4.474186E-4],"categories":[],"categories_nodes":[],"categories_segments":[],"categories_sizes":[],"default_left":[0,0,0,0,0,0,0,0,0,0,0,0,0,0,0,0,0,0,0,0,0,0,0,0,0,0,0,0,0,0,0,0,0,0,0,0,0,0,0,0,0,0,0,0,0,0,0,0,0,0,0],"id":13,"left_children":[1,3,5,7,9,11,13,15,17,19,21,23,25,-1,-1,27,29,31,-1,-1,-1,-1,-1,33,-1,35,-1,-1,37,-1,39,41,43,45,-1,47,49,-1,-1,-1,-1,-1,-1,-1,-1,-1,-1,-1,-1,-1,-1],"loss_changes":[5.472346E-1,1.8081313E-1,4.8795855E-1,2.545689E-1,2.5085294E-1,4.1598815E-1,4.6029043E-1,2.2420338E-1,3.882246E-1,1.8719786E-1,2.76921E-1,2.0835644E-1,4.791009E-1,0E0,0E0,1.2877053E-1,2.79625E-1,4.545184E-1,0E0,0E0,0E0,0E0,0E0,2.258724E-1,0E0,3.337607E-1,0E0,0E0,1.9993918E-1,0E0,2.5429165E-1,2.0787337E-1,1.471861E-1,1.3105947E-1,0E0,4.508542E-1,4.9653345E-1,0E0,0E0,0E0,0E0,0E0,0E0,0E0,0E0,0E0,0E0,0E0,0E0,0E0,0E0],"parents":[2147483647,0,0,1,1,2,2,3,3,4,4,5,5,6,6,7,7,8,8,9,9,10,10,11,11,12,12,15,15,16,16,17,17,23,23,25,25,28,28,30,30,31,31,32,32,33,33,35,35,36,36],"right_children":[2,4,6,8,10,12,14,16,18,20,22,24,26,-1,-1,28,30,32,-1,-1,-1,-1,-1,34,-1,36,-1,-1,38,-1,40,42,44,46,-1,48,50,-1,-1,-1,-1,-1,-1,-1,-1,-1,-1,-1,-1,-1,-1],"split_conditions":[2.4470818E-4,4.545E-1,1.4286E0,1E0,6.849315E-2,1E0,1.1E1,3.333E-1,4.5527942E-2,1.8E1,3E0,1E0,2.3E1,-1.9105424E-3,-2.2695493E-3,7E0,5E0,3.6486488E-2,5.0144563E-3,2.774946E-3,-1.1216685E-3,-5.4616254E-4,3.9845455E-4,1.3840414E2,-2.466151E-3,3E0,-3.0089046E-3,2.1273047E-3,4E0,5.3689023E-3,5.486439E1,6E0,1.2E1,3.81E-1,-4.2582507E-4,9.052466E1,4E0,-1.0162094E-3,2.66485E-3,-1.107412E-3,8.776717E-5,1.9284673E-3,-1.6108996E-3,-3.847557E-3,-3.5881333E-3,1.5513244E-3,5.872378E-4,-5.1783794E-5,2.489996E-3,-1.2157102E-3,-1.4155124E-4],"split_indices":[26,32,32,19,38,9,2,32,38,2,4,36,8,0,0,3,8,38,0,0,0,0,0,31,0,4,0,0,9,0,31,4,2,32,0,31,4,0,0,0,0,0,0,0,0,0,0,0,0,0,0],"split_type":[0,0,0,0,0,0,0,0,0,0,0,0,0,0,0,0,0,0,0,0,0,0,0,0,0,0,0,0,0,0,0,0,0,0,0,0,0,0,0,0,0,0,0,0,0,0,0,0,0,0,0],"sum_hessian":[1.601E3,3.33E2,1.268E3,1.85E2,1.48E2,1.244E3,2.4E1,1.26E2,5.9E1,1.25E2,2.3E1,1.25E2,1.119E3,1.3E1,1.1E1,8.2E1,4.4E1,4.3E1,1.6E1,1.07E2,1.8E1,1.3E1,1E1,1.14E2,1.1E1,1.106E3,1.3E1,6E1,2.2E1,1.5E1,2.9E1,2.3E1,2E1,1.02E2,1.2E1,5.4E2,5.66E2,1E1,1.2E1,1.5E1,1.4E1,1.3E1,1E1,1E1,1E1,7.9E1,2.3E1,4.08E2,1.32E2,4.4E1,5.22E2],"tree_param":{"num_deleted":"0","num_feature":"40","num_nodes":"51","size_leaf_vector":"1"}},{"base_weights":[8.234563E-3,1.0113069E-2,-7.25E-3,-6.283625E-4,3.507307E-2,-6.785714E-2,4.849664E-3,4.4851262E-2,-6.511627E-2,7.2727306E-3,-2.0333332E-1,4.9689442E-2,-3.444313E-3,7.213115E-2,2.5098043E-2,-1.8399999E-1,2.8421052E-3,-5.785714E-3,7.380953E-2,-1.10769225E-2,-2.1666666E-3,6.482759E-2,-2.470588E-3,4.0909093E-2,-1.29526425E-2,8.1437126E-2,-7.0588227E-4,4.9246233E-2,-5.9649117E-2,-8.76923E-3,-1.8461536E-3,2.90625E-3,1.0159883E-10,2.9464285E-3,1.3000001E-3,1.8832118E-3,-3.833333E-3,-6.7726534E-4,1.6333334E-3,1.6901409E-3,2.9690722E-3,5.454546E-4,2.3762374E-3,-1.10769225E-2,9.333334E-4],"categories":[],"categories_nodes":[],"categories_segments":[],"categories_sizes":[],"default_left":[0,0,0,0,0,0,0,0,0,0,0,0,0,0,0,0,0,0,0,0,0,0,0,0,0,0,0,0,0,0,0,0,0,0,0,0,0,0,0,0,0,0,0,0,0],"id":14,"left_children":[1,3,-1,5,7,9,11,13,15,17,19,21,23,25,27,29,-1,-1,31,-1,-1,33,-1,35,37,39,-1,41,43,-1,-1,-1,-1,-1,-1,-1,-1,-1,-1,-1,-1,-1,-1,-1,-1],"loss_changes":[7.549575E-1,4.2684704E-1,0E0,4.1059414E-1,4.7218263E-1,8.5645664E-1,3.8360018E-1,2.3367387E-1,8.346006E-1,7.466147E-1,6.258633E-1,3.2715788E-1,3.678539E-1,1.6482556E-1,5.247926E-1,3.1360006E-1,0E0,0E0,7.150298E-2,0E0,0E0,9.9799275E-2,0E0,5.760156E-1,4.6689048E-1,6.791031E-2,0E0,1.8377754E-1,1.6130563E0,0E0,0E0,0E0,0E0,0E0,0E0,0E0,0E0,0E0,0E0,0E0,0E0,0E0,0E0,0E0,0E0],"parents":[2147483647,0,0,1,1,3,3,4,4,5,5,6,6,7,7,8,8,9,9,10,10,11,11,12,12,13,13,14,14,15,15,18,18,21,21,23,23,24,24,25,25,27,27,28,28],"right_children":[2,4,-1,6,8,10,12,14,16,18,20,22,24,26,28,30,-1,-1,32,-1,-1,34,-1,36,38,40,-1,42,44,-1,-1,-1,-1,-1,-1,-1,-1,-1,-1,-1,-1,-1,-1,-1,-1],"split_conditions":[3.7E0,9E0,-2.504606E-3,2.3326572E-2,1E0,1E0,3.6486488E-2,3E0,1E0,2.727E-1,1.2E1,1E0,1E1,1.4488461E0,1.2266101E1,5E0,2.3648697E-3,-2.3459832E-3,7.619E-1,-2.890472E-3,-7.844692E-4,3E0,-1.8972853E-3,1.7E0,7E-1,6E0,-1.9453936E-3,3.6486488E-2,1.2846771E1,-1.5372606E-3,-1.4271641E-3,1.3404498E-3,-2.747726E-3,1.3990327E-3,1.9595677E-3,9.3828945E-4,-1.5112389E-3,-3.4795274E-4,2.959881E-4,4.993122E-4,1.9883183E-3,8.561473E-5,2.0890625E-3,-1.3349002E-3,4.6675315E-4],"split_indices":[14,22,0,38,35,11,38,4,12,32,10,35,2,39,18,4,0,0,32,0,0,22,0,15,14,8,0,38,18,0,0,0,0,0,0,0,0,0,0,0,0,0,0,0,0],"split_type":[0,0,0,0,0,0,0,0,0,0,0,0,0,0,0,0,0,0,0,0,0,0,0,0,0,0,0,0,0,0,0,0,0,0,0,0,0,0,0,0,0,0,0,0,0],"sum_hessian":[1.602E3,1.591E3,1.1E1,1.113E3,4.78E2,8.3E1,1.03E3,4.36E2,4.2E1,5.4E1,2.9E1,1.6E2,8.7E2,1.82E2,2.54E2,2.4E1,1.8E1,1.3E1,4.1E1,1.2E1,1.7E1,1.44E2,1.6E1,1.53E2,7.17E2,1.66E2,1.6E1,1.98E2,5.6E1,1.2E1,1.2E1,3.1E1,1E1,5.5E1,8.9E1,1.36E2,1.7E1,6.28E2,8.9E1,7E1,9.6E1,9.8E1,1E2,1.2E1,4.4E1],"tree_param":{"num_deleted":"0","num_feature":"40","num_nodes":"45","size_leaf_vector":"1"}},{"base_weights":[7.061072E-3,-1.2998856E-2,3.232759E-2,-2.7194028E-3,-1.3333333E-1,6.1829656E-2,7.6315827E-3,8.533333E-2,-1.1700677E-2,6.0606096E-3,-2.5405404E-1,3.5638303E-2,2.9769232E-3,4.5180727E-2,-2.1395344E-2,2.953846E-3,1.0159883E-10,-5.2534558E-2,5.394994E-3,-3.1999997E-3,2.8421052E-3,-1.6499999E-3,-1.3833333E-2,6.0389612E-2,-7.428571E-2,5.9333336E-2,-2.470588E-3,3.0172417E-2,-8.099999E-2,-1.1086956E-1,4.8750002E-2,2.7302634E-2,-2.5462959E-2,7.152778E-2,-2.7272725E-3,-6.6315783E-3,2.8235293E-3,-4.0909085E-2,7.5968996E-2,6.593407E-2,-9.615384E-2,-1.2676056E-1,3.0000003E-2,-5.959459E-3,-2.7692295E-4,2.4843751E-3,-2.470588E-3,2.1214285E-3,-2.9090897E-4,6.692309E-4,-2.8965515E-3,2.9662922E-3,8.035715E-4,2.7272727E-3,-4.75E-3,-1.8461536E-3,2.7179488E-3,2.9387753E-3,8.372094E-4,-7.2E-3,2.75E-3,-6.139534E-3,-2.0689644E-4,-2.25E-3,2.8421052E-3],"categories":[],"categories_nodes":[],"categories_segments":[],"categories_sizes":[],"default_left":[0,0,0,0,0,0,0,0,0,0,0,0,0,0,0,0,0,0,0,0,0,0,0,0,0,0,0,0,0,0,0,0,0,0,0,0,0,0,0,0,0,0,0,0,0,0,0,0,0,0,0,0,0,0,0,0,0,0,0,0,0,0,0,0,0],"id":15,"left_children":[1,3,5,7,9,11,13,15,17,19,21,23,-1,25,27,-1,-1,29,31,-1,-1,-1,-1,33,35,37,-1,39,41,43,45,47,49,51,-1,-1,-1,53,55,57,59,61,63,-1,-1,-1,-1,-1,-1,-1,-1,-1,-1,-1,-1,-1,-1,-1,-1,-1,-1,-1,-1,-1,-1],"loss_changes":[7.9717976E-1,1.0844623E0,5.06622E-1,6.4077646E-1,1.1626536E0,3.069924E-1,4.1514245E-1,8.4020495E-2,5.133741E-1,3.3998084E-1,1.499614E0,5.159896E-1,0E0,3.0450532E-1,6.632848E-1,0E0,0E0,1.2875353E0,3.5155216E-1,0E0,0E0,0E0,0E0,2.660218E-1,8.8586646E-1,2.5324762E-1,0E0,5.3038555E-1,5.11745E-1,1.229369E0,3.640754E-1,4.889747E-1,7.3568046E-1,1.7355484E-1,0E0,0E0,0E0,3.5492423E-1,2.6507646E-1,1.08088076E-1,7.2444874E-1,6.6146445E-1,2.1102628E-1,0E0,0E0,0E0,0E0,0E0,0E0,0E0,0E0,0E0,0E0,0E0,0E0,0E0,0E0,0E0,0E0,0E0,0E0,0E0,0E0,0E0,0E0],"parents":[2147483647,0,0,1,1,2,2,3,3,4,4,5,5,6,6,7,7,8,8,9,9,10,10,11,11,13,13,14,14,17,17,18,18,23,23,24,24,25,25,27,27,28,28,29,29,30,30,31,31,32,32,33,33,37,37,38,38,39,39,40,40,41,41,42,42],"right_children":[2,4,6,8,10,12,14,16,18,20,22,24,-1,26,28,-1,-1,30,32,-1,-1,-1,-1,34,36,38,-1,40,42,44,46,48,50,52,-1,-1,-1,54,56,58,60,62,64,-1,-1,-1,-1,-1,-1,-1,-1,-1,-1,-1,-1,-1,-1,-1,-1,-1,-1,-1,-1,-1,-1],"split_conditions":[6E0,3.8E0,3E0,3E0,1.5177993E-1,1.510824E-2,1.2251672E-2,2E-1,1.1E1,5E0,6.117705E-4,6.926029E-1,2.078193E-3,3.6E0,7.6601696E0,9.877466E-4,3.720048E-5,6.9892416E0,1E0,-1.5748949E-3,1.8727939E-3,-7.526511E-4,-1.2362207E-3,1.734082E1,3E0,6E0,-1.3904789E-3,8.368639E1,1.2846771E1,3.231E0,7E-1,1.158E0,8.496741E0,6.472245E1,-2.5822457E-3,-2.64421E-3,1.2644444E-3,3.6706228E-4,1E0,3E0,1E0,7E0,8E0,-2.682753E-3,-1.7028847E-3,2.371637E-3,-1.1148707E-3,2.0458365E-3,-1.3627697E-4,1.7718815E-4,-2.1304823E-3,9.899497E-4,7.196165E-4,6.438104E-4,-1.3479E-3,-1.9372175E-3,1.1653976E-3,3.2631096E-3,6.3730386E-4,-1.7198728E-3,1.9863585E-3,-8.678468E-4,-5.5671026E-5,-3.875744E-3,8.100915E-4],"split_indices":[22,15,4,2,39,13,13,14,2,3,26,39,0,15,18,0,0,18,19,0,0,0,0,18,3,2,0,31,18,33,15,33,18,31,0,0,0,26,0,3,19,4,8,0,0,0,0,0,0,0,0,0,0,0,0,0,0,0,0,0,0,0,0,0,0],"split_type":[0,0,0,0,0,0,0,0,0,0,0,0,0,0,0,0,0,0,0,0,0,0,0,0,0,0,0,0,0,0,0,0,0,0,0,0,0,0,0,0,0,0,0,0,0,0,0,0,0,0,0,0,0,0,0,0,0,0,0,0,0,0,0,0,0],"sum_hessian":[1.571E3,8.76E2,6.95E2,8.08E2,6.8E1,3.16E2,3.79E2,7.4E1,7.34E2,3.2E1,3.6E1,1.87E2,1.29E2,1.65E2,2.14E2,6.4E1,1E1,2.16E2,5.18E2,1.4E1,1.8E1,1.9E1,1.7E1,1.53E2,3.4E1,1.49E2,1.6E1,1.15E2,9.9E1,1.37E2,7.9E1,3.03E2,2.15E2,1.43E2,1E1,1.8E1,1.6E1,2.1E1,1.28E2,9E1,2.5E1,7E1,2.9E1,7.3E1,6.4E1,6.3E1,1.6E1,1.39E2,1.64E2,1.29E2,8.6E1,8.8E1,5.5E1,1E1,1.1E1,1.2E1,1.16E2,4.8E1,4.2E1,1.4E1,1.1E1,4.2E1,2.8E1,1.1E1,1.8E1],"tree_param":{"num_deleted":"0","num_feature":"40","num_nodes":"65","size_leaf_vector":"1"}},{"base_weights":[7.2055175E-3,-6.720426E-3,3.950104E-2,5.9644706E-3,-3.708206E-2,4.7260277E-2,-3.863636E-2,-8.363636E-2,1.2670303E-2,-5.6727268E-2,6.1818182E-2,8.932039E-2,3.4226194E-2,-1.17857136E-1,2.8235293E-3,-1.3333329E-2,-1.090909E-2,5.0699305E-2,-1.1581288E-2,-2.7727269E-2,-1.6964285E-1,2.90625E-3,1.2500003E-2,2.9670328E-3,4.6153853E-4,-1.4772723E-2,5.1405624E-2,4.6153853E-4,-6.5624993E-3,-5.454545E-3,4.0000003E-2,3.3175357E-2,2.9605264E-3,-1.14754096E-1,4.627253E-3,-5.785714E-3,-1.6425116E-2,-2.2826086E-1,2.7272727E-3,-2.25E-3,2.7692309E-3,2.1794874E-2,-8.181817E-3,5.7740588E-2,-2.7272725E-3,2.8749998E-3,-2.25E-3,2.56E-3,1.3138697E-4,1.8181828E-4,-7.448275E-3,-4.914675E-4,2.0412372E-3,-1.7631577E-3,1.0531916E-3,-1.0874999E-2,-2.3478258E-3,2.9E-3,-7.346937E-4,2.0895523E-3,-1.5384605E-4],"categories":[],"categories_nodes":[],"categories_segments":[],"categories_sizes":[],"default_left":[0,0,0,0,0,0,0,0,0,0,0,0,0,0,0,0,0,0,0,0,0,0,0,0,0,0,0,0,0,0,0,0,0,0,0,0,0,0,0,0,0,0,0,0,0,0,0,0,0,0,0,0,0,0,0,0,0,0,0,0,0],"id":16,"left_children":[1,3,5,7,9,11,13,15,17,19,21,23,25,27,-1,29,-1,31,33,35,37,-1,39,-1,-1,41,43,-1,-1,-1,45,47,-1,49,51,-1,53,55,-1,-1,-1,57,-1,59,-1,-1,-1,-1,-1,-1,-1,-1,-1,-1,-1,-1,-1,-1,-1,-1,-1],"loss_changes":[7.1805954E-1,4.3003094E-1,2.9344976E-1,4.7452807E-1,6.42726E-1,2.3706114E-1,4.7383493E-1,1.0778182E0,6.7752874E-1,8.9579797E-1,9.388068E-2,7.143915E-2,2.8359532E-1,3.7977335E-1,0E0,4.1163638E-1,0E0,2.3721915E-1,7.51385E-1,4.0742332E-1,8.7604105E-1,0E0,1.7451923E-1,0E0,0E0,8.360285E-1,2.2973722E-1,0E0,0E0,0E0,2.3191665E-1,3.1653363E-1,0E0,9.855196E-1,5.1937795E-1,0E0,4.5377755E-1,8.978803E-1,0E0,0E0,0E0,2.726698E-1,0E0,1.7932993E-1,0E0,0E0,0E0,0E0,0E0,0E0,0E0,0E0,0E0,0E0,0E0,0E0,0E0,0E0,0E0,0E0,0E0],"parents":[2147483647,0,0,1,1,2,2,3,3,4,4,5,5,6,6,7,7,8,8,9,9,10,10,11,11,12,12,13,13,15,15,17,17,18,18,19,19,20,20,22,22,25,25,26,26,30,30,31,31,33,33,34,34,36,36,37,37,41,41,43,43],"right_children":[2,4,6,8,10,12,14,16,18,20,22,24,26,28,-1,30,-1,32,34,36,38,-1,40,-1,-1,42,44,-1,-1,-1,46,48,-1,50,52,-1,54,56,-1,-1,-1,58,-1,60,-1,-1,-1,-1,-1,-1,-1,-1,-1,-1,-1,-1,-1,-1,-1,-1,-1],"split_conditions":[9E0,2.5714967E-2,1E0,2.3326572E-2,4.4447254E-2,2.4470818E-4,9.468163E0,3.8E0,4.2857144E-2,1.5906031E-3,5.4208413E-2,1.7251577E1,7.108056E-3,5E0,1.6398247E-3,2.6681247E0,-7.919681E-4,7.3412457E-4,1E0,2.607662E-2,4.5527942E-2,3.351468E-3,2.21E0,2.0079184E-3,9.423072E-4,4.4E0,2.1E1,2.748153E-4,-1.1756684E-3,-3.270847E-3,9.049194E0,2.4470818E-4,2.2848805E-3,6.849315E-2,3.666E0,-3.388136E-3,1E0,6.288149E0,5.517219E-4,-8.6555706E-4,1.5827717E-3,2.3326572E-2,-1.6538072E-3,1.2728383E1,-1.3590889E-3,3.9032042E-5,-3.290239E-3,1.3860499E-3,1.5109028E-5,-1.3291885E-3,-2.7654984E-3,-6.522618E-4,1.9501859E-3,-1.5051618E-3,5.9362594E-4,-2.920035E-3,-3.864024E-4,2.168636E-3,-1.1499854E-4,9.858859E-4,-6.2125306E-5],"split_indices":[22,13,35,38,13,26,18,15,38,26,13,18,13,3,0,18,0,26,5,13,38,0,33,0,0,33,22,0,0,0,18,26,0,38,33,0,30,18,0,0,0,38,0,18,0,0,0,0,0,0,0,0,0,0,0,0,0,0,0,0,0],"split_type":[0,0,0,0,0,0,0,0,0,0,0,0,0,0,0,0,0,0,0,0,0,0,0,0,0,0,0,0,0,0,0,0,0,0,0,0,0,0,0,0,0,0,0,0,0,0,0,0,0,0,0,0,0,0,0,0,0,0,0,0,0],"sum_hessian":[1.595E3,1.115E3,4.8E2,7.87E2,3.28E2,4.37E2,4.3E1,5.4E1,7.33E2,2.74E2,5.4E1,1.02E2,3.35E2,2.7E1,1.6E1,4.4E1,1E1,2.85E2,4.48E2,2.19E2,5.5E1,3.1E1,2.3E1,9E1,1.2E1,8.7E1,2.48E2,1.2E1,1.5E1,1E1,3.4E1,2.1E2,7.5E1,6E1,3.88E2,1.3E1,2.06E2,4.5E1,1E1,1.1E1,1.2E1,7.7E1,1E1,2.38E2,1E1,2.3E1,1.1E1,7.4E1,1.36E2,3.2E1,2.8E1,2.92E2,9.6E1,1.13E2,9.3E1,2.3E1,2.2E1,2.9E1,4.8E1,2E2,3.8E1],"tree_param":{"num_deleted":"0","num_feature":"40","num_nodes":"61","size_leaf_vector":"1"}},{"base_weights":[1.136935E-2,-6.766051E-3,3.3287104E-2,-1.4591191E-2,7.3076926E-2,3.6389284E-2,-4.153846E-3,-9.664944E-3,-6.15E-3,2.953125E-3,-1.1999998E-3,6.109325E-2,1.7042609E-2,-1.9854011E-2,6.630435E-2,2.380956E-3,7E-2,4.7161575E-2,-2.339181E-2,-1.3499999E-1,-8.785939E-3,2.953125E-3,-6.896548E-3,6.206897E-2,-3.6428568E-3,1.2765961E-2,8.169643E-2,2.1428574E-2,2.9605264E-3,1.6528929E-2,-1.1764705E-1,-1.9591835E-3,-1.225E-2,-7.0987636E-4,1.2765958E-3,2.8333333E-3,-4.75E-3,2.8421052E-3,1.0159883E-10,-2.8571426E-3,2.8888888E-3,1.9576272E-3,2.9719626E-3,1.8058253E-3,-1.6730768E-3,-1.4032257E-3,2.45E-3,-5.1891888E-3,8.0000004E-4],"categories":[],"categories_nodes":[],"categories_segments":[],"categories_sizes":[],"default_left":[0,0,0,0,0,0,0,0,0,0,0,0,0,0,0,0,0,0,0,0,0,0,0,0,0,0,0,0,0,0,0,0,0,0,0,0,0,0,0,0,0,0,0,0,0,0,0,0,0],"id":17,"left_children":[1,3,5,7,9,11,-1,13,-1,-1,-1,15,17,19,21,23,25,27,29,31,33,-1,35,37,-1,39,41,43,-1,45,47,-1,-1,-1,-1,-1,-1,-1,-1,-1,-1,-1,-1,-1,-1,-1,-1,-1,-1],"loss_changes":[6.3302493E-1,5.4587656E-1,3.8918376E-1,7.437293E-1,2.276178E-1,3.3781803E-1,0E0,6.0198396E-1,0E0,0E0,0E0,1.6246629E-1,4.870225E-1,8.718081E-1,2.1707904E-1,3.179146E-1,1.7970419E-1,3.015008E-1,6.453729E-1,1.116313E0,4.7911575E-1,0E0,4.6000957E-1,5.8802165E-2,0E0,4.3318698E-1,5.7506323E-2,4.6422035E-1,0E0,5.027539E-1,4.118114E-1,0E0,0E0,0E0,0E0,0E0,0E0,0E0,0E0,0E0,0E0,0E0,0E0,0E0,0E0,0E0,0E0,0E0,0E0],"parents":[2147483647,0,0,1,1,2,2,3,3,4,4,5,5,7,7,11,11,12,12,13,13,14,14,15,15,16,16,17,17,18,18,19,19,20,20,22,22,23,23,25,25,26,26,27,27,29,29,30,30],"right_children":[2,4,6,8,10,12,-1,14,-1,-1,-1,16,18,20,22,24,26,28,30,32,34,-1,36,38,-1,40,42,44,-1,46,48,-1,-1,-1,-1,-1,-1,-1,-1,-1,-1,-1,-1,-1,-1,-1,-1,-1,-1],"split_conditions":[6E0,2.8013816E0,6.789392E0,1.3182E0,2.0456456E2,7.8548374E0,-2.643237E-3,7.619E-1,-1.2126665E-3,1.5339315E-3,-3.4422209E-3,2E0,1.3124003E-2,2.1342225E0,9.188332E0,8.150311E1,1.9467994E0,4.2857144E-2,1E0,6.19E-1,1E0,6.350504E-3,5E0,3.4805242E-2,-1.3176829E-3,2.841111E-1,4.6648563E1,9E0,1.293323E-3,3.636E-1,2.7556961E-2,-4.6556196E-4,-3.1124859E-3,-5.664139E-4,1.912715E-4,7.219141E-3,-3.5938872E-3,3.420806E-3,-1.0852682E-3,-1.9320287E-3,2.559816E-3,1.417265E-3,2.0781974E-3,3.833732E-4,-7.26365E-4,-3.3123055E-4,2.8075585E-3,-1.6309238E-3,-1.5157541E-4],"split_indices":[22,39,39,32,31,18,0,32,0,0,0,8,13,18,18,31,18,38,19,32,12,0,5,13,0,39,31,8,0,32,13,0,0,0,0,0,0,0,0,0,0,0,0,0,0,0,0,0,0],"split_type":[0,0,0,0,0,0,0,0,0,0,0,0,0,0,0,0,0,0,0,0,0,0,0,0,0,0,0,0,0,0,0,0,0,0,0,0,0,0,0,0,0,0,0,0,0,0,0,0,0],"sum_hessian":[1.591E3,8.71E2,7.2E2,7.94E2,7.7E1,7.08E2,1.2E1,7.75E2,1.9E1,6.3E1,1.4E1,3.1E2,3.98E2,6.84E2,9.1E1,4.1E1,2.69E2,2.28E2,1.7E2,5.9E1,6.25E2,6.3E1,2.8E1,2.8E1,1.3E1,4.6E1,2.23E2,1.53E2,7.5E1,1.2E2,5E1,4.8E1,1.1E1,4.85E2,1.4E2,1.7E1,1.1E1,1.8E1,1E1,2E1,2.6E1,1.17E2,1.06E2,1.02E2,5.1E1,6.1E1,5.9E1,3.6E1,1.4E1],"tree_param":{"num_deleted":"0","num_feature":"40","num_nodes":"49","size_leaf_vector":"1"}},{"base_weights":[7.218423E-3,-7.0080822E-3,3.919192E-2,-3.4766658E-3,-1.9047618E-1,-3.2051245E-3,5.8529414E-2,3.974359E-2,-1.5232554E-2,1.0159883E-10,-1.090909E-2,1.4788736E-2,-5.2E-3,7.605634E-2,2.8906252E-2,1.5060244E-2,2.956522E-3,-1.4594594E-1,-9.344656E-3,-3.835616E-2,7E-2,4.545458E-3,8.385417E-2,-5.454545E-2,5.7291668E-2,2.83871E-2,-4.75E-3,1.9230772E-2,-1.4749999E-2,-1.1044776E-1,-3.9577464E-4,7.2727306E-3,-5.0526313E-3,2.9491524E-3,-2.25E-3,2.75E-3,-2.7272725E-3,9.3251534E-2,3.0000003E-2,-5.0526313E-3,2.8E-3,2.9375001E-3,1.6326534E-2,2.943396E-3,-2.3300959E-4,-2.7272725E-3,2.8124999E-3,-7.083333E-3,1.0312501E-3,-7.859999E-4,1.4826255E-3,-4.153846E-3,1.5348837E-3,2.9767442E-3,2.057143E-3,2.8421052E-3,-2.25E-3,-2.1249996E-3,2.8846154E-3],"categories":[],"categories_nodes":[],"categories_segments":[],"categories_sizes":[],"default_left":[0,0,0,0,0,0,0,0,0,0,0,0,0,0,0,0,0,0,0,0,0,0,0,0,0,0,0,0,0,0,0,0,0,0,0,0,0,0,0,0,0,0,0,0,0,0,0,0,0,0,0,0,0,0,0,0,0,0,0],"id":18,"left_children":[1,3,5,7,9,11,13,15,17,-1,-1,19,-1,21,23,25,-1,27,29,31,33,35,37,39,41,43,-1,45,-1,47,49,51,-1,-1,-1,-1,-1,53,55,-1,-1,-1,57,-1,-1,-1,-1,-1,-1,-1,-1,-1,-1,-1,-1,-1,-1,-1,-1],"loss_changes":[7.312526E-1,7.20453E-1,4.0601462E-1,5.559505E-1,6.9264066E-1,4.801204E-1,1.7433035E-1,3.3818018E-1,6.605155E-1,0E0,0E0,4.193409E-1,0E0,1.1839414E-1,3.0633286E-1,3.8808596E-1,0E0,2.1223404E0,7.454783E-1,4.3445912E-1,2.9466948E-1,1.9128788E-1,9.437108E-2,5.714322E-1,1.5816537E-1,3.9149904E-1,0E0,2.2191869E-1,0E0,1.2274432E0,9.7568804E-1,3.5887983E-1,0E0,0E0,0E0,0E0,0E0,1.7225623E-2,2.1102628E-1,0E0,0E0,0E0,3.4774002E-1,0E0,0E0,0E0,0E0,0E0,0E0,0E0,0E0,0E0,0E0,0E0,0E0,0E0,0E0,0E0,0E0],"parents":[2147483647,0,0,1,1,2,2,3,3,4,4,5,5,6,6,7,7,8,8,11,11,13,13,14,14,15,15,17,17,18,18,19,19,20,20,21,21,22,22,23,23,24,24,25,25,27,27,29,29,30,30,31,31,37,37,38,38,42,42],"right_children":[2,4,6,8,10,12,14,16,18,-1,-1,20,-1,22,24,26,-1,28,30,32,34,36,38,40,42,44,-1,46,-1,48,50,52,-1,-1,-1,-1,-1,54,56,-1,-1,-1,58,-1,-1,-1,-1,-1,-1,-1,-1,-1,-1,-1,-1,-1,-1,-1,-1],"split_conditions":[9E0,1.4286E0,3.182E-1,3E0,2.7184946E1,3.6E0,1E0,1E-1,5E0,-9.038918E-4,-2.8282355E-3,6E0,-1.3748915E-3,1.2869581E-3,4.2888875E0,1.5906031E-3,1.6578446E-3,1E0,2.3326572E-2,6E0,1E0,1.3E1,1.8152063E2,1E0,9.29358E0,1.158E0,-2.2256516E-3,4.8476498E1,-3.645676E-3,4.286E-1,2.869E0,5.1336265E0,-3.744814E-4,2.1827458E-3,-4.9260247E-4,3.121969E-3,-1.1923641E-3,3.666E0,5E0,-2.0386912E-3,4.7200066E-3,1.1123294E-3,1.3E1,3.9002064E-3,-6.286568E-4,-3.7411754E-3,1.4279786E-3,-2.0972122E-3,1.2659609E-4,-2.305439E-4,1.12822E-3,-2.5205582E-3,1.1109851E-3,1.4167636E-3,1.5807473E-3,2.8049478E-3,-1.5739488E-3,-6.302008E-4,2.0953938E-3],"split_indices":[22,32,32,8,31,15,19,15,0,0,0,1,0,13,18,26,0,0,38,4,35,22,31,24,18,33,0,31,0,32,33,18,0,0,0,0,0,33,4,0,0,0,22,0,0,0,0,0,0,0,0,0,0,0,0,0,0,0,0],"split_type":[0,0,0,0,0,0,0,0,0,0,0,0,0,0,0,0,0,0,0,0,0,0,0,0,0,0,0,0,0,0,0,0,0,0,0,0,0,0,0,0,0,0,0,0,0,0,0,0,0,0,0,0,0,0,0,0,0,0,0],"sum_hessian":[1.606E3,1.112E3,4.94E2,1.092E3,2E1,1.55E2,3.39E2,2.33E2,8.59E2,1E1,1E1,1.41E2,1.4E1,2.12E2,1.27E2,1.65E2,6.8E1,3.6E1,8.23E2,7.2E1,6.9E1,2.1E1,1.91E2,3.2E1,9.5E1,1.54E2,1.1E1,2.5E1,1.1E1,6.6E1,7.57E2,5.4E1,1.8E1,5.8E1,1.1E1,1.1E1,1E1,1.62E2,2.9E1,1.8E1,1.4E1,4.7E1,4.8E1,5.2E1,1.02E2,1E1,1.5E1,3.5E1,3.1E1,4.99E2,2.58E2,1.2E1,4.2E1,1.28E2,3.4E1,1.8E1,1.1E1,2.3E1,2.5E1],"tree_param":{"num_deleted":"0","num_feature":"40","num_nodes":"59","size_leaf_vector":"1"}},{"base_weights":[7.997485E-3,-4.7222185E-3,3.4970533E-2,-1.2706608E-2,6.3716814E-2,4.2886183E-2,-5.4999995E-3,-8.387096E-2,-5.1369825E-3,3.6051195E-9,8.674699E-2,5.357968E-2,-3.4999996E-2,1.2765961E-2,-1.787234E-1,-7.97619E-2,2.7742786E-3,2.8124999E-3,-2.8124996E-3,2.9558823E-3,9.375001E-4,4.240688E-2,2.964706E-3,4.0000003E-2,-1.3461538E-1,2.9E-3,-3.833333E-3,-3.3214286E-1,1.35E-3,-1.2741935E-1,5.2173916E-2,2.1161051E-2,-3.4999996E-2,4.864865E-2,-2.470588E-3,2.88E-3,-2.7272725E-3,-7.928572E-3,4.6153853E-4,-1.9090908E-2,-3.833333E-3,4.6153853E-4,-4.8599993E-3,1.0159883E-10,2.7692309E-3,2.1960784E-3,7.853514E-6,1.0169503E-4,-3.4642855E-3,-1.4285713E-3,1.6485623E-3],"categories":[],"categories_nodes":[],"categories_segments":[],"categories_sizes":[],"default_left":[0,0,0,0,0,0,0,0,0,0,0,0,0,0,0,0,0,0,0,0,0,0,0,0,0,0,0,0,0,0,0,0,0,0,0,0,0,0,0,0,0,0,0,0,0,0,0,0,0,0,0],"id":19,"left_children":[1,3,5,7,9,11,-1,13,15,17,19,21,23,25,27,29,31,-1,-1,-1,-1,33,-1,35,37,-1,-1,39,-1,41,43,45,47,49,-1,-1,-1,-1,-1,-1,-1,-1,-1,-1,-1,-1,-1,-1,-1,-1,-1],"loss_changes":[5.449908E-1,5.90969E-1,8.8742286E-1,5.210186E-1,1.6581726E-1,4.1165024E-1,0E0,8.547426E-1,5.173917E-1,2.8125E-1,5.1193774E-2,2.1469092E-1,4.536538E-1,5.6656265E-1,1.6281519E0,5.348168E-1,5.515165E-1,0E0,0E0,0E0,0E0,2.757805E-1,0E0,2.653091E-1,5.0978017E-1,0E0,0E0,1.6595056E0,0E0,3.0866396E-1,4.816053E-2,5.8077556E-1,8.036529E-1,2.0468664E-1,0E0,0E0,0E0,0E0,0E0,0E0,0E0,0E0,0E0,0E0,0E0,0E0,0E0,0E0,0E0,0E0,0E0],"parents":[2147483647,0,0,1,1,2,2,3,3,4,4,5,5,7,7,8,8,9,9,10,10,11,11,12,12,13,13,14,14,15,15,16,16,21,21,23,23,24,24,27,27,29,29,30,30,31,31,32,32,33,33],"right_children":[2,4,6,8,10,12,-1,14,16,18,20,22,24,26,28,30,32,-1,-1,-1,-1,34,-1,36,38,-1,-1,40,-1,42,44,46,48,50,-1,-1,-1,-1,-1,-1,-1,-1,-1,-1,-1,-1,-1,-1,-1,-1,-1],"split_conditions":[3.034E0,1.4080981E1,2.8E0,1.9176838E-3,4E0,8E0,-3.1765928E-3,3E0,1.9467994E0,5.714E-1,1E0,1.1E1,7.3412457E-4,1.04775E-3,5.714E-1,3.2152873E-2,9.993093E0,4.811114E-4,-3.0495317E-3,2.329718E-3,7.1910076E-4,1E1,1.0718851E-3,9E0,1.5906031E-3,1.1417998E-3,-2.6752457E-3,3.6706228E-4,5.2477466E-4,9.148801E-1,5E0,3.6486488E-2,1E0,1.148749E-3,-1.2247328E-3,2.629385E-4,-2.4043461E-3,-2.3536077E-3,-8.7117474E-4,-3.3652943E-3,-5.602265E-4,-6.882949E-4,-1.9158004E-3,-2.791071E-4,1.1482164E-3,1.0716219E-3,-2.6365646E-5,2.0675905E-5,-8.3487603E-4,-2.8478866E-3,1.5156787E-3],"split_indices":[33,18,14,13,2,4,0,4,18,32,12,22,26,13,32,13,18,0,0,0,0,22,0,4,26,0,0,26,0,18,4,38,19,13,0,0,0,0,0,0,0,0,0,0,0,0,0,0,0,0,0],"split_type":[0,0,0,0,0,0,0,0,0,0,0,0,0,0,0,0,0,0,0,0,0,0,0,0,0,0,0,0,0,0,0,0,0,0,0,0,0,0,0,0,0,0,0,0,0,0,0,0,0,0,0],"sum_hessian":[1.587E3,1.079E3,5.08E2,9.67E2,1.12E2,4.91E2,1.7E1,9.2E1,8.75E2,3E1,8.2E1,4.32E2,5.9E1,4.6E1,4.6E1,8.3E1,7.92E2,1.5E1,1.5E1,6.7E1,1.5E1,3.48E2,8.4E1,3.4E1,2.5E1,2.9E1,1.7E1,2.7E1,1.9E1,6.1E1,2.2E1,5.33E2,2.59E2,3.32E2,1.6E1,2.4E1,1E1,1.3E1,1.2E1,1E1,1.7E1,1.2E1,4.9E1,1E1,1.2E1,1.52E2,3.81E2,1.76E2,8.3E1,2E1,3.12E2],"tree_param":{"num_deleted":"0","num_feature":"40","num_nodes":"51","size_leaf_vector":"1"}},{"base_weights":[4.947233E-3,1.1692974E-2,-7.154471E-2,-1.0393697E-2,3.0131582E-2,2.1153849E-2,-1.3749999E-1,3.3395214E-3,-8.6597934E-2,3.552448E-2,-5.434782E-2,2.9032258E-3,-8.636363E-2,-3.1724137E-1,-1.5909087E-2,2.564103E-2,-3.8095232E-2,-2.4687499E-1,-7.5757536E-3,3.860399E-2,-3.6428568E-3,5.6E-2,-1.7727272E-1,-5.454545E-3,2.500001E-4,-5.9999996E-3,-1.3384614E-2,3.8235296E-2,-5.454545E-3,4.2914983E-2,-1.5238091E-2,-4.444441E-3,-1.2E-1,-1.1999998E-3,-1.2166666E-2,7.380953E-2,-1.44E-1,3.143323E-2,8.764045E-2,2.8E-3,1.0159883E-10,2.500001E-4,-1.090909E-2,-2.7272725E-3,2.8749998E-3,2.4568965E-3,2.500001E-4,-8.76923E-3,7.096775E-4,2.2978722E-3,-1.4157301E-3,-9.199999E-3,-1.4634144E-3,2.500001E-4,2.9032258E-3,-9.749999E-3,6.428572E-4,8.82354E-5,1.4801061E-3,2.9610388E-3,4.6153853E-4],"categories":[],"categories_nodes":[],"categories_segments":[],"categories_sizes":[],"default_left":[0,0,0,0,0,0,0,0,0,0,0,0,0,0,0,0,0,0,0,0,0,0,0,0,0,0,0,0,0,0,0,0,0,0,0,0,0,0,0,0,0,0,0,0,0,0,0,0,0,0,0,0,0,0,0,0,0,0,0,0,0],"id":20,"left_children":[1,3,5,7,9,11,13,15,17,19,21,-1,23,25,27,29,31,33,35,37,-1,39,41,-1,-1,-1,-1,43,-1,45,47,49,51,-1,-1,53,55,57,59,-1,-1,-1,-1,-1,-1,-1,-1,-1,-1,-1,-1,-1,-1,-1,-1,-1,-1,-1,-1,-1,-1],"loss_changes":[7.8308463E-1,5.680162E-1,7.549257E-1,6.6483533E-1,3.4817803E-1,4.3114424E-1,1.5685068E0,4.990438E-1,1.2266777E0,3.5027492E-1,6.33894E-1,0E0,2.0037879E-1,3.4907174E-1,4.0220588E-1,2.4851052E-1,5.2038085E-1,1.0342429E0,7.434216E-1,2.4408877E-1,0E0,5.2266665E-2,7.640152E-1,0E0,0E0,0E0,0E0,2.6161984E-1,0E0,3.3228508E-1,1.1384313E0,4.7128025E-1,7.162277E-1,0E0,0E0,6.234637E-2,7.5552857E-1,3.1306326E-1,6.961125E-2,0E0,0E0,0E0,0E0,0E0,0E0,0E0,0E0,0E0,0E0,0E0,0E0,0E0,0E0,0E0,0E0,0E0,0E0,0E0,0E0,0E0,0E0],"parents":[2147483647,0,0,1,1,2,2,3,3,4,4,5,5,6,6,7,7,8,8,9,9,10,10,12,12,13,13,14,14,15,15,16,16,17,17,18,18,19,19,21,21,22,22,27,27,29,29,30,30,31,31,32,32,35,35,36,36,37,37,38,38],"right_children":[2,4,6,8,10,12,14,16,18,20,22,-1,24,26,28,30,32,34,36,38,-1,40,42,-1,-1,-1,-1,44,-1,46,48,50,52,-1,-1,54,56,58,60,-1,-1,-1,-1,-1,-1,-1,-1,-1,-1,-1,-1,-1,-1,-1,-1,-1,-1,-1,-1,-1,-1],"split_conditions":[1E0,5E0,3E0,1E-1,4.1E0,4.2857144E-2,2.709751E-2,1E0,2.305226E1,2.69179E-3,2.5535267E-2,1.9056204E-3,3E0,9.409586E0,5.6338027E-2,1.4E0,7.8698363E0,1.2460141E1,5E-1,6.849315E-2,-7.4948603E-4,1.1933522E1,3E0,-2.778624E-3,-1.0921304E-3,-1.9566847E-3,-2.5208052E-3,2.1376741E1,-2.3479706E-3,2.841111E-1,1.905E-1,2E0,3E0,-8.64493E-4,-2.2289455E-3,2.273E-1,1E0,3.6131886E1,7E0,1.9391137E-3,4.5141092E-5,-2.5489386E-3,-1.6922285E-3,-2.495034E-3,2.3151757E-3,1.0634675E-3,8.644494E-6,-1.9699922E-3,5.58562E-4,3.6424303E-3,-1.3770825E-3,-3.0177853E-3,-1.0368807E-4,-2.485007E-3,2.1219952E-3,-3.0229045E-3,-2.032716E-3,7.8654564E-5,1.1100625E-3,2.228418E-3,2.583297E-4],"split_indices":[35,1,10,38,15,38,38,19,31,26,39,0,4,18,38,15,18,31,32,38,0,18,4,0,0,0,0,31,0,39,32,22,10,0,0,32,5,31,22,0,0,0,0,0,0,0,0,0,0,0,0,0,0,0,0,0,0,0,0,0,0],"split_type":[0,0,0,0,0,0,0,0,0,0,0,0,0,0,0,0,0,0,0,0,0,0,0,0,0,0,0,0,0,0,0,0,0,0,0,0,0,0,0,0,0,0,0,0,0,0,0,0,0,0,0,0,0,0,0,0,0,0,0,0,0],"sum_hessian":[1.515E3,1.393E3,1.22E2,6.34E2,7.59E2,5.1E1,7.1E1,5.38E2,9.6E1,7.14E2,4.5E1,3E1,2.1E1,2.8E1,4.3E1,3.5E2,1.88E2,3.1E1,6.5E1,7.01E2,1.3E1,2.4E1,2.1E1,1E1,1.1E1,1.6E1,1.2E1,3.3E1,1E1,2.46E2,1.04E2,1.34E2,5.4E1,1.4E1,1.7E1,4.1E1,2.4E1,6.13E2,8.8E1,1.4E1,1E1,1.1E1,1E1,1E1,2.3E1,1.15E2,1.31E2,1.2E1,9.2E1,4.6E1,8.8E1,1.4E1,4E1,1.1E1,3E1,1.1E1,1.3E1,2.37E2,3.76E2,7.6E1,1.2E1],"tree_param":{"num_deleted":"0","num_feature":"40","num_nodes":"61","size_leaf_vector":"1"}},{"base_weights":[2.7493644E-3,3.7388727E-2,-6.758954E-3,4.8813563E-2,-4.186046E-2,-3.7202377E-2,4.703251E-3,6.1003864E-2,-3.7837833E-2,-5.9999996E-3,5.9259262E-2,-1.391941E-2,-1.359375E-1,1.1469537E-2,-9.473684E-2,6.9787234E-2,-2.3999996E-2,-1.3181818E-1,2.8124999E-3,1.0159883E-10,2.8235293E-3,3.4532376E-2,-6.37037E-2,-4.4897955E-2,-1.21875E-2,2.403208E-3,8.764045E-2,-1.0869562E-2,-1.225E-2,7.908163E-2,2.2500003E-2,-4.153846E-3,2.7692309E-3,2.500001E-4,-8.181817E-3,2.953125E-3,-1.9736838E-2,-1.4428571E-1,2.2727275E-2,4.3243244E-2,-8.76923E-3,4.157895E-2,-1.0892853E-2,8.0000004E-4,2.96E-3,2.9E-3,-5.9999996E-3,2.6557378E-3,-1.4999999E-3,-3.6428568E-3,2.8888888E-3,6.4615393E-4,-7.25E-3,-9.999999E-3,-1.8599998E-3,2.1538462E-3,-1.392857E-3,2.8846154E-3,-2.25E-3,-2.8378365E-4,2.2051283E-3,-4.363636E-3,-7.386352E-5],"categories":[],"categories_nodes":[],"categories_segments":[],"categories_sizes":[],"default_left":[0,0,0,0,0,0,0,0,0,0,0,0,0,0,0,0,0,0,0,0,0,0,0,0,0,0,0,0,0,0,0,0,0,0,0,0,0,0,0,0,0,0,0,0,0,0,0,0,0,0,0,0,0,0,0,0,0,0,0,0,0,0,0],"id":21,"left_children":[1,3,5,7,9,11,13,15,17,-1,19,21,23,25,27,29,31,33,-1,-1,-1,35,37,39,-1,41,43,45,-1,47,49,-1,-1,-1,-1,-1,51,53,55,57,-1,59,61,-1,-1,-1,-1,-1,-1,-1,-1,-1,-1,-1,-1,-1,-1,-1,-1,-1,-1,-1,-1],"loss_changes":[5.15375E-1,3.0716616E-1,4.28684E-1,3.139187E-1,6.99466E-1,7.705203E-1,6.0193276E-1,1.950497E-1,4.6992475E-1,0E0,5.5773422E-2,6.607135E-1,1.556744E0,5.7781374E-1,1.4946892E0,1.01504564E-1,3.4559998E-1,4.367424E-1,0E0,0E0,0E0,4.840061E-1,9.435246E-1,1.0811828E0,0E0,3.9059433E-1,5.7204485E-2,9.5489854E-1,0E0,2.4333298E-1,4.3654892E-1,0E0,0E0,0E0,0E0,0E0,7.013819E-1,1.0682477E0,2.2729187E-1,2.3869541E-1,0E0,3.102847E-1,6.3493615E-1,0E0,0E0,0E0,0E0,0E0,0E0,0E0,0E0,0E0,0E0,0E0,0E0,0E0,0E0,0E0,0E0,0E0,0E0,0E0,0E0],"parents":[2147483647,0,0,1,1,2,2,3,3,4,4,5,5,6,6,7,7,8,8,10,10,11,11,12,12,13,13,14,14,15,15,16,16,17,17,21,21,22,22,23,23,25,25,26,26,27,27,29,29,30,30,36,36,37,37,38,38,39,39,41,41,42,42],"right_children":[2,4,6,8,10,12,14,16,18,-1,20,22,24,26,28,30,32,34,-1,-1,-1,36,38,40,-1,42,44,46,-1,48,50,-1,-1,-1,-1,-1,52,54,56,58,-1,60,62,-1,-1,-1,-1,-1,-1,-1,-1,-1,-1,-1,-1,-1,-1,-1,-1,-1,-1,-1,-1],"split_conditions":[2.4470818E-4,1.7E1,3E0,8E0,5E0,5E0,1E0,2.764216E2,9.468163E0,-3.0595628E-3,3E0,4.1918254E-1,7E0,1E-1,6.462E0,2E-1,4.142694E2,3E0,5.7226594E-4,-6.1406003E-4,4.5097768E-5,3E0,3.667E0,1.2E1,-1.1852037E-3,1E1,2E0,8.532124E1,-3.4647598E-3,1E0,1.1E1,-1.367009E-3,4.6640965E-3,-1.7722736E-3,-1.3136751E-3,1.5524934E-3,1.9E0,2.649694E1,3.0744212E0,5E0,-1.6328851E-3,3.444702E1,5E0,-1.5425839E-3,2.3681954E-3,2.468301E-3,-1.0047718E-3,2.0019573E-3,-8.695594E-4,-7.2424294E-4,7.1056996E-4,5.4817257E-4,-2.2547632E-3,-2.163501E-3,-2.5914358E-3,1.3991166E-3,-1.0345742E-3,3.025293E-4,-2.2154248E-3,-4.06157E-5,1.3592999E-3,-3.1528934E-3,-3.643119E-5],"split_indices":[26,2,5,4,22,1,14,31,18,0,4,39,4,15,33,14,31,10,0,0,0,4,33,22,0,2,22,31,0,35,2,0,0,0,0,0,14,31,18,9,0,31,0,0,0,0,0,0,0,0,0,0,0,0,0,0,0,0,0,0,0,0,0],"split_type":[0,0,0,0,0,0,0,0,0,0,0,0,0,0,0,0,0,0,0,0,0,0,0,0,0,0,0,0,0,0,0,0,0,0,0,0,0,0,0,0,0,0,0,0,0,0,0,0,0,0,0,0,0,0,0,0,0,0,0,0,0,0,0],"sum_hessian":[1.563E3,3.36E2,1.227E3,2.94E2,4.2E1,3.35E2,8.92E2,2.58E2,3.6E1,1.6E1,2.6E1,2.72E2,6.3E1,8.36E2,5.6E1,2.34E2,2.4E1,2.1E1,1.5E1,1E1,1.6E1,1.38E2,1.34E2,4.8E1,1.5E1,7.48E2,8.8E1,4.5E1,1.1E1,1.95E2,3.9E1,1.2E1,1.2E1,1.1E1,1E1,6.3E1,7.5E1,6.9E1,6.5E1,3.6E1,1.2E1,1.89E2,5.59E2,1.4E1,7.4E1,2.9E1,1.6E1,1.82E2,1.3E1,1.3E1,2.6E1,6.4E1,1.1E1,2E1,4.9E1,3.8E1,2.7E1,2.5E1,1.1E1,7.3E1,1.16E2,3.2E1,5.27E2],"tree_param":{"num_deleted":"0","num_feature":"40","num_nodes":"63","size_leaf_vector":"1"}},{"base_weights":[1.259494E-2,-1.6933635E-2,2.386364E-2,7.588079E-3,-1.4782608E-1,3.8303696E-2,-1.6908175E-3,1.8618623E-2,-9.1891885E-2,-2.226415E-1,2.8235293E-3,9.329449E-3,6.375322E-2,6.075953E-3,-4.6499996E-3,-1.1059904E-2,7.350428E-2,-1.090909E-2,2.2222225E-2,-3.2258064E-1,-7.826086E-2,3.498099E-2,-7.407407E-2,4.3824703E-2,2.978417E-3,3.4913797E-2,-3.4756094E-2,-4.6527773E-2,5.810811E-2,1.1428575E-2,2.9638554E-3,2.8235293E-3,-2.7272725E-3,-5.4999995E-3,-1.4357142E-2,-5.454545E-3,4.6153853E-4,-7.826086E-2,4.5643155E-2,-1.75E-1,4.4736844E-2,5.3556487E-2,-4.153846E-3,4.7641512E-2,-9.523809E-2,-7.633584E-3,-1.3823529E-1,-3.2282607E-3,1.8113208E-3,2.9387753E-3,-5.769229E-4,2.8333333E-3,-2.1666666E-3,-7.25E-3,2.75E-3,-2.0999997E-3,1.8537736E-3,-1.12E-2,-2.0999997E-3,2.8571428E-3,-4.9999985E-4,1.7973569E-3,-1.8461536E-3,1.6485149E-3,-2.7272725E-3,1.0159883E-10,-5.454545E-3,1.6714286E-3,-2.3709675E-3,4.6153853E-4,-6.681818E-3],"categories":[],"categories_nodes":[],"categories_segments":[],"categories_sizes":[],"default_left":[0,0,0,0,0,0,0,0,0,0,0,0,0,0,0,0,0,0,0,0,0,0,0,0,0,0,0,0,0,0,0,0,0,0,0,0,0,0,0,0,0,0,0,0,0,0,0,0,0,0,0,0,0,0,0,0,0,0,0,0,0,0,0,0,0,0,0,0,0,0,0],"id":22,"left_children":[1,3,5,7,9,11,13,15,17,19,-1,21,23,25,-1,27,29,-1,31,33,35,37,39,41,-1,43,45,47,49,51,-1,-1,-1,-1,-1,-1,-1,53,55,57,59,61,-1,63,65,67,69,-1,-1,-1,-1,-1,-1,-1,-1,-1,-1,-1,-1,-1,-1,-1,-1,-1,-1,-1,-1,-1,-1,-1,-1],"loss_changes":[5.2614695E-1,1.4037638E0,4.2220974E-1,4.0662122E-1,1.2699319E0,5.384306E-1,4.9389866E-1,5.432451E-1,1.1554463E0,7.3950624E-1,0E0,7.364153E-1,2.7106392E-1,4.6632913E-1,0E0,5.350572E-1,1.8255514E-1,0E0,2.2816399E-1,5.856221E-1,2.2584371E-1,3.211192E-1,9.791081E-1,4.52682E-1,0E0,3.8885373E-1,4.592297E-1,9.4679743E-1,2.2995462E-1,2.4987298E-1,0E0,0E0,0E0,0E0,0E0,0E0,0E0,6.607971E-1,4.5440644E-1,8.9016676E-1,1.19423546E-1,1.785096E-1,0E0,2.1968031E-1,1.7316018E-1,5.969101E-1,4.4473463E-1,0E0,0E0,0E0,0E0,0E0,0E0,0E0,0E0,0E0,0E0,0E0,0E0,0E0,0E0,0E0,0E0,0E0,0E0,0E0,0E0,0E0,0E0,0E0,0E0],"parents":[2147483647,0,0,1,1,2,2,3,3,4,4,5,5,6,6,7,7,8,8,9,9,11,11,12,12,13,13,15,15,16,16,18,18,19,19,20,20,21,21,22,22,23,23,25,25,26,26,27,27,28,28,29,29,37,37,38,38,39,39,40,40,41,41,43,43,44,44,45,45,46,46],"right_children":[2,4,6,8,10,12,14,16,18,20,-1,22,24,26,-1,28,30,-1,32,34,36,38,40,42,-1,44,46,48,50,52,-1,-1,-1,-1,-1,-1,-1,54,56,58,60,62,-1,64,66,68,70,-1,-1,-1,-1,-1,-1,-1,-1,-1,-1,-1,-1,-1,-1,-1,-1,-1,-1,-1,-1,-1,-1,-1,-1],"split_conditions":[4.663849E0,3.8804674E0,6.117705E-4,1.2959251E2,1.6712793E0,6E0,2.1023376E0,5E0,1E0,8E0,4.351201E-3,5.371097E-1,4.1918254E-1,9.752448E0,-2.646906E-3,3.882E0,4.091E-1,-2.928399E-3,3.5E0,3.999455E-1,4.2673736E0,1.364E-1,3.666E0,7.333E0,2.3005097E-3,1.2E0,1.2E1,7.273E-1,5.714E-1,8E0,2.1306148E-3,2.4274296E-4,-2.320608E-3,-2.676531E-3,-1.6249771E-3,-1.9050675E-3,6.523049E-4,1.1613252E1,7.089048E0,3.1874022E1,5.447171E1,2.6181705E2,-3.0212048E-3,9E0,1E0,7E0,1.10490055E1,-1.4730738E-3,2.697557E-4,3.3712455E-3,-5.319924E-4,4.1529154E-3,-2.0197188E-3,-2.5306118E-3,1.0526464E-4,-1.1865286E-3,1.1771631E-3,-2.7667445E-3,-3.1075645E-3,5.200811E-3,-4.937033E-4,1.7385692E-3,-3.1981086E-3,6.2882586E-4,-1.8910793E-4,-6.3945074E-4,-2.597303E-3,2.303818E-3,-3.871087E-4,-1.5476021E-3,-1.2512191E-3],"split_indices":[18,18,26,31,39,1,39,4,29,1,0,39,39,18,0,33,32,0,33,39,18,32,33,33,0,14,10,32,32,4,0,0,0,0,0,0,0,18,18,31,31,31,0,4,25,1,18,0,0,0,0,0,0,0,0,0,0,0,0,0,0,0,0,0,0,0,0,0,0,0,0],"split_type":[0,0,0,0,0,0,0,0,0,0,0,0,0,0,0,0,0,0,0,0,0,0,0,0,0,0,0,0,0,0,0,0,0,0,0,0,0,0,0,0,0,0,0,0,0,0,0,0,0,0,0,0,0,0,0,0,0,0,0,0,0,0,0,0,0,0,0,0,0,0,0],"sum_hessian":[1.579E3,4.36E2,1.143E3,3.68E2,6.8E1,7.3E2,4.13E2,3.32E2,3.6E1,5.2E1,1.6E1,3.42E2,3.88E2,3.94E2,1.9E1,2.16E2,1.16E2,1E1,2.6E1,3E1,2.2E1,2.62E2,8E1,2.5E2,1.38E2,2.31E2,1.63E2,1.43E2,7.3E1,3.4E1,8.2E1,1.6E1,1E1,1.7E1,1.3E1,1E1,1.2E1,2.2E1,2.4E2,4.3E1,3.7E1,2.38E2,1.2E1,2.11E2,2E1,1.3E2,3.3E1,9.1E1,5.2E1,4.8E1,2.5E1,1.7E1,1.7E1,1.1E1,1.1E1,2.9E1,2.11E2,1.4E1,2.9E1,2E1,1.7E1,2.26E2,1.2E1,2.01E2,1E1,1E1,1E1,6.9E1,6.1E1,1.2E1,2.1E1],"tree_param":{"num_deleted":"0","num_feature":"40","num_nodes":"71","size_leaf_vector":"1"}},{"base_weights":[1.1813541E-2,1.7061284E-2,-4.580152E-2,4.613845E-3,4.5227274E-2,-1.75E-1,1.9318186E-2,8.799176E-3,-1.21874996E-1,8.720931E-2,3.492958E-2,-3.2083333E-1,3.5478955E-9,2.9142858E-3,-3.148148E-2,1.2156452E-2,-1.4285713E-1,-2.2272727E-1,2.7272727E-3,2.500001E-4,2.96E-3,9.039552E-3,6.0335197E-2,-1.4749999E-2,-4.153846E-3,2.7272727E-3,-2.7272725E-3,4.3243244E-2,-5.4999995E-3,3.7712932E-3,6.7200005E-2,1.0159883E-10,-8.181817E-3,1.0159883E-10,-1.225E-2,-6.8749994E-2,3.7692312E-2,2.9444445E-3,4.3650795E-2,-2.7272725E-3,2.8888888E-3,2.7581872E-4,-4.344827E-3,-8.7499985E-4,2.6764707E-3,-8.181817E-3,-2.3684198E-4,2.576923E-3,-1.0188678E-3,-5.999989E-5,2.1818182E-3],"categories":[],"categories_nodes":[],"categories_segments":[],"categories_sizes":[],"default_left":[0,0,0,0,0,0,0,0,0,0,0,0,0,0,0,0,0,0,0,0,0,0,0,0,0,0,0,0,0,0,0,0,0,0,0,0,0,0,0,0,0,0,0,0,0,0,0,0,0,0,0],"id":23,"left_children":[1,3,5,7,9,11,13,15,17,19,21,23,25,-1,27,29,31,33,-1,-1,-1,35,37,-1,-1,-1,-1,39,-1,41,43,-1,-1,-1,-1,45,47,-1,49,-1,-1,-1,-1,-1,-1,-1,-1,-1,-1,-1,-1],"loss_changes":[4.742601E-1,5.03245E-1,1.1055317E0,5.288817E-1,1.871739E-1,1.1229167E0,3.509633E-1,4.9357754E-1,7.069602E-1,7.689685E-2,2.3295662E-1,6.7964745E-1,1.8181817E-1,0E0,6.206707E-1,4.3637186E-1,3.8961038E-1,9.094697E-1,0E0,0E0,0E0,3.9710402E-1,1.08644426E-1,0E0,0E0,0E0,0E0,2.7209026E-1,0E0,6.6370064E-1,2.6779938E-1,0E0,0E0,0E0,0E0,5.936752E-1,4.5195264E-1,0E0,1.6739337E-1,0E0,0E0,0E0,0E0,0E0,0E0,0E0,0E0,0E0,0E0,0E0,0E0],"parents":[2147483647,0,0,1,1,2,2,3,3,4,4,5,5,6,6,7,7,8,8,9,9,10,10,11,11,12,12,14,14,15,15,16,16,17,17,21,21,22,22,27,27,29,29,30,30,35,35,36,36,38,38],"right_children":[2,4,6,8,10,12,14,16,18,20,22,24,26,-1,28,30,32,34,-1,-1,-1,36,38,-1,-1,-1,-1,40,-1,42,44,-1,-1,-1,-1,46,48,-1,50,-1,-1,-1,-1,-1,-1,-1,-1,-1,-1,-1,-1],"split_conditions":[1E0,9E0,2.709751E-2,5.8E0,2E0,1E0,2E0,1.4286E0,1.2E1,2E0,4E0,1E1,7E0,1.6226041E-3,8.5647864E-4,5E-1,2.7184946E1,5E0,2.1534935E-3,-3.125628E-4,2.0676034E-3,3E0,3.03753E1,-2.8442063E-3,-1.3007175E-3,3.121776E-5,-1.8495024E-4,3E0,-1.8304295E-3,2E-1,2.3326572E-2,-8.2305056E-4,-2.5933352E-3,-1.794828E-3,-3.0347984E-3,1.8337164E1,8E0,7.3792815E-4,3E0,-2.2443188E-3,2.4978935E-3,5.431207E-5,-2.1712391E-3,-9.722113E-5,1.0650387E-3,-2.6253073E-3,-7.6766424E-5,1.0106344E-3,-1.5049016E-4,-2.1842835E-4,1.4262677E-3],"split_indices":[35,22,38,15,10,12,9,32,2,8,10,22,3,0,26,14,31,3,0,0,0,1,31,0,0,0,0,3,0,14,38,0,0,0,0,31,1,0,5,0,0,0,0,0,0,0,0,0,0,0,0],"split_type":[0,0,0,0,0,0,0,0,0,0,0,0,0,0,0,0,0,0,0,0,0,0,0,0,0,0,0,0,0,0,0,0,0,0,0,0,0,0,0,0,0,0,0,0,0,0,0,0,0,0,0],"sum_hessian":[1.565E3,1.435E3,1.3E2,9.96E2,4.39E2,4.3E1,8.7E1,9.65E2,3.1E1,8.5E1,3.54E2,2.3E1,2E1,3.4E1,5.3E1,9.45E2,2E1,2.1E1,1E1,1.1E1,7.4E1,1.76E2,1.78E2,1.1E1,1.2E1,1E1,1E1,3.6E1,1.7E1,8.21E2,1.24E2,1E1,1E1,1E1,1.1E1,4.7E1,1.29E2,5.3E1,1.25E2,1E1,2.6E1,7.93E2,2.8E1,2.3E1,1.01E2,1E1,3.7E1,7.7E1,5.2E1,4.9E1,7.6E1],"tree_param":{"num_deleted":"0","num_feature":"40","num_nodes":"51","size_leaf_vector":"1"}},{"base_weights":[9.663068E-3,1.6129069E-3,4.8161767E-2,1.2677488E-2,-3.2807566E-2,5.7307694E-2,-4.153846E-3,-2.9806222E-3,4.5886077E-2,-1.8581077E-2,-2.2272727E-1,2.1111114E-2,7.602339E-2,-9.552238E-2,7.272731E-3,8.220339E-2,2.4120606E-2,-4.07407E-3,-1.6296296E-1,-2.25E-3,-1.090909E-2,6.911765E-2,-1.2173913E-1,8.627451E-2,-3.1578934E-4,-1.6199999E-1,2.8333333E-3,2.3379633E-2,-3.2758616E-2,2.9638554E-3,4.1666668E-2,2.9473684E-3,-5.5944016E-3,6.2256847E-3,-5.785714E-3,-1.00714285E-2,6.428572E-4,2.9444445E-3,-1.1999998E-3,-7.25E-3,2.500001E-4,2.970297E-3,6.037736E-2,-8.869564E-3,-1.392857E-3,2.1226415E-3,2.3853223E-4,-3.9807693E-3,2.9268302E-4,2.8846154E-3,-2.7272725E-3,1.6901409E-3,-1.9726027E-3,-1.355769E-3,1.2272728E-3,-1.4999999E-3,2.9250002E-3],"categories":[],"categories_nodes":[],"categories_segments":[],"categories_sizes":[],"default_left":[0,0,0,0,0,0,0,0,0,0,0,0,0,0,0,0,0,0,0,0,0,0,0,0,0,0,0,0,0,0,0,0,0,0,0,0,0,0,0,0,0,0,0,0,0,0,0,0,0,0,0,0,0,0,0,0,0],"id":24,"left_children":[1,3,5,7,9,11,-1,13,15,17,19,21,23,25,27,29,31,33,35,-1,-1,37,39,41,-1,43,-1,45,47,-1,49,-1,51,53,-1,-1,-1,-1,-1,-1,-1,-1,55,-1,-1,-1,-1,-1,-1,-1,-1,-1,-1,-1,-1,-1,-1],"loss_changes":[4.874276E-1,4.9628016E-1,4.7219628E-1,5.1284075E-1,8.523607E-1,1.7453063E-1,0E0,6.37382E-1,2.4780369E-1,6.1932254E-1,4.3068182E-1,6.2561136E-1,1.5262455E-1,8.614122E-1,3.9085838E-1,7.5247586E-2,4.3887204E-1,5.2619386E-1,8.6724865E-1,0E0,0E0,2.1933219E-1,3.6079714E-1,4.4483066E-2,0E0,7.585919E-1,0E0,3.1519887E-1,7.405601E-1,0E0,2.687937E-1,0E0,5.36493E-1,4.6017003E-1,0E0,0E0,0E0,0E0,0E0,0E0,0E0,0E0,2.2204244E-1,0E0,0E0,0E0,0E0,0E0,0E0,0E0,0E0,0E0,0E0,0E0,0E0,0E0,0E0],"parents":[2147483647,0,0,1,1,2,2,3,3,4,4,5,5,7,7,8,8,9,9,10,10,11,11,12,12,13,13,14,14,15,15,16,16,17,17,18,18,21,21,22,22,23,23,25,25,27,27,28,28,30,30,32,32,33,33,42,42],"right_children":[2,4,6,8,10,12,-1,14,16,18,20,22,24,26,28,30,32,34,36,-1,-1,38,40,42,-1,44,-1,46,48,-1,50,-1,52,54,-1,-1,-1,-1,-1,-1,-1,-1,56,-1,-1,-1,-1,-1,-1,-1,-1,-1,-1,-1,-1,-1,-1],"split_conditions":[7.143E-1,9.788327E-4,2.857143E-1,4.8941636E-4,1.5E1,8.75E-1,-2.382535E-3,1E0,2.857E-1,3.8E0,2.709751E-2,2.4412245E-2,1.9E1,3.2E0,6E0,1E0,3E0,2.857143E-1,1E1,-1.1944188E-3,-2.3795145E-3,6.3591026E-2,6.117705E-4,1.5099678E0,-3.007181E-3,1.3223353E-2,6.6134793E-4,3.6486488E-2,2.709751E-2,2.2863254E-3,4.5527942E-2,1.5563051E-3,3.0423477E-1,3.9637104E-2,-2.41182E-3,-6.847664E-4,9.276961E-4,1.9520753E-3,-1.9319461E-3,-2.3199928E-3,2.3901778E-4,2.661314E-3,2.2E0,-2.3090404E-3,-1.3076446E-3,1.0369266E-3,5.464657E-5,-8.381628E-4,9.050272E-5,6.0077617E-4,-2.0841304E-3,2.0433234E-3,-1.5579091E-3,-3.4477212E-4,1.2900836E-4,-7.351468E-4,1.5096384E-3],"split_indices":[32,26,38,26,8,33,0,5,32,15,38,13,2,15,4,12,8,38,2,0,0,38,26,39,0,13,0,38,38,0,38,0,39,39,0,0,0,0,0,0,0,0,33,0,0,0,0,0,0,0,0,0,0,0,0,0,0],"split_type":[0,0,0,0,0,0,0,0,0,0,0,0,0,0,0,0,0,0,0,0,0,0,0,0,0,0,0,0,0,0,0,0,0,0,0,0,0,0,0,0,0,0,0,0,0,0,0,0,0,0,0,0,0,0,0,0,0],"sum_hessian":[1.572E3,1.301E3,2.71E2,9.85E2,3.16E2,2.59E2,1.2E1,6.7E2,3.15E2,2.95E2,2.1E1,8.9E1,1.7E2,6.6E1,6.04E2,1.17E2,1.98E2,2.69E2,2.6E1,1.1E1,1E1,6.7E1,2.2E1,1.52E2,1.8E1,4.9E1,1.7E1,4.31E2,1.73E2,8.2E1,3.5E1,5.6E1,1.42E2,2.56E2,1.3E1,1.3E1,1.3E1,5.3E1,1.4E1,1.1E1,1.1E1,1E2,5.2E1,2.2E1,2.7E1,1.05E2,3.26E2,5.1E1,1.22E2,2.5E1,1E1,7E1,7.2E1,1.03E2,1.53E2,1.3E1,3.9E1],"tree_param":{"num_deleted":"0","num_feature":"40","num_nodes":"57","size_leaf_vector":"1"}},{"base_weights":[7.4144523E-3,5.135952E-2,-4.246791E-3,-3.148148E-2,6.726619E-2,-1.0234168E-2,6.7708336E-2,-1.21874996E-1,2.8695653E-3,3.1460676E-2,8.368421E-2,1.7321053E-3,-4.618055E-2,8.6904764E-2,-1.8461536E-3,-2.3809522E-1,2.75E-3,-7.0833325E-2,6.818182E-2,9.31677E-2,3.0000003E-2,5.5797104E-2,-8.504797E-3,-7.928572E-3,-3.490909E-2,2.958904E-3,2.500001E-4,-2.7272725E-3,-1.090909E-2,2.7692309E-3,-7.25E-3,-2.25E-3,2.9454546E-3,2.9795917E-3,8.0000004E-4,-2.25E-3,2.8421052E-3,6.796875E-2,-2.7272725E-3,2.5206614E-2,-2.5204914E-2,2.8409127E-3,-1.00999996E-1,-2.25E-3,2.4615384E-3,4.142858E-4,2.909091E-3,1.5E-3,-1.2088451E-3,-3.473684E-3,5.126583E-4,-5.543478E-3,-8.7272713E-4],"categories":[],"categories_nodes":[],"categories_segments":[],"categories_sizes":[],"default_left":[0,0,0,0,0,0,0,0,0,0,0,0,0,0,0,0,0,0,0,0,0,0,0,0,0,0,0,0,0,0,0,0,0,0,0,0,0,0,0,0,0,0,0,0,0,0,0,0,0,0,0,0,0],"id":25,"left_children":[1,3,5,7,9,11,13,15,-1,17,19,21,23,25,-1,27,-1,29,31,33,35,37,39,-1,41,-1,-1,-1,-1,-1,-1,-1,-1,-1,-1,-1,-1,43,-1,45,47,49,51,-1,-1,-1,-1,-1,-1,-1,-1,-1,-1],"loss_changes":[8.0887073E-1,4.3828446E-1,5.383594E-1,6.3222873E-1,1.6079116E-1,4.9603635E-1,2.4353132E-1,8.159969E-1,0E0,3.3914495E-1,9.393656E-2,4.797693E-1,6.987829E-1,7.656556E-2,0E0,3.5497844E-1,0E0,6.911859E-1,2.908636E-1,6.321907E-2,2.1102628E-1,2.5259948E-1,4.1105103E-1,0E0,6.863932E-1,0E0,0E0,0E0,0E0,0E0,0E0,0E0,0E0,0E0,0E0,0E0,0E0,2.6386422E-1,0E0,1.9659033E-1,5.558148E-1,2.994556E-1,5.970975E-1,0E0,0E0,0E0,0E0,0E0,0E0,0E0,0E0,0E0,0E0],"parents":[2147483647,0,0,1,1,2,2,3,3,4,4,5,5,6,6,7,7,9,9,10,10,11,11,12,12,13,13,15,15,17,17,18,18,19,19,20,20,21,21,22,22,24,24,37,37,39,39,40,40,41,41,42,42],"right_children":[2,4,6,8,10,12,14,16,-1,18,20,22,24,26,-1,28,-1,30,32,34,36,38,40,-1,42,-1,-1,-1,-1,-1,-1,-1,-1,-1,-1,-1,-1,44,-1,46,48,50,52,-1,-1,-1,-1,-1,-1,-1,-1,-1,-1],"split_conditions":[2.4470818E-4,1.9176838E-3,4.217102E-2,1.0115655E1,3E0,2.4461186E-2,3.2E0,2E0,1.9853944E-3,3.182E-1,2.4340024E-2,1.3698526E1,2.580625E-2,5.7152417E-2,-4.8449988E-4,4.2857144E-2,1.5781088E-3,1E0,6.5801484E-3,1E-1,2.93348E-2,8E0,5E0,-2.8604157E-3,1.223541E-3,2.5475905E-3,-1.6395914E-4,-2.8870897E-3,-2.9751637E-3,4.7892253E-4,-2.712896E-3,-6.036835E-4,1.5717488E-3,2.2731628E-3,1.646517E-4,-2.1923867E-3,4.2995678E-5,1.364E-1,-1.708757E-5,1.345895E-3,3.0431675E-3,4E0,6E0,-1.8033083E-3,1.3113024E-3,1.2630792E-4,1.8966201E-3,4.5464767E-4,-1.9923349E-4,-1.5588809E-3,2.0756018E-4,-1.8882159E-3,-2.8302084E-4],"split_indices":[26,13,13,18,1,13,15,25,0,32,13,31,13,13,0,38,0,19,13,38,13,3,8,0,26,0,0,0,0,0,0,0,0,0,0,0,0,32,0,26,13,2,8,0,0,0,0,0,0,0,0,0,0],"split_type":[0,0,0,0,0,0,0,0,0,0,0,0,0,0,0,0,0,0,0,0,0,0,0,0,0,0,0,0,0,0,0,0,0,0,0,0,0,0,0,0,0,0,0,0,0,0,0,0,0,0,0,0,0],"sum_hessian":[1.577E3,3.3E2,1.247E3,5.3E1,2.77E2,1.152E3,9.5E1,3.1E1,2.2E1,8.8E1,1.89E2,8.65E2,2.87E2,8.3E1,1.2E1,2E1,1.1E1,2.3E1,6.5E1,1.6E2,2.9E1,1.37E2,7.28E2,1.3E1,2.74E2,7.2E1,1.1E1,1E1,1E1,1.2E1,1.1E1,1.1E1,5.4E1,1.46E2,1.4E1,1.1E1,1.8E1,1.27E2,1E1,2.41E2,4.87E2,1.75E2,9.9E1,1.1E1,1.16E2,2.09E2,3.2E1,8.1E1,4.06E2,1.8E1,1.57E2,4.5E1,5.4E1],"tree_param":{"num_deleted":"0","num_feature":"40","num_nodes":"53","size_leaf_vector":"1"}},{"base_weights":[6.5856813E-3,1.2337255E-3,8.0188684E-2,2.949219E-2,-1.4029532E-2,2.9610388E-3,3.0000003E-2,7.280702E-2,1.7042609E-2,-1.1099249E-2,-7.25E-3,-2.25E-3,2.8421052E-3,8.921569E-2,-1.8461536E-3,-1.03333324E-1,2.675676E-2,-1.824561E-2,6.2650606E-2,2.9670328E-3,2.500001E-4,-8.181817E-3,-1.4999988E-4,4.84252E-2,-2.0512816E-2,-1.28676435E-2,-1.275E-1,8.4285714E-2,-1.4999999E-3,-1.7910436E-4,2.0265956E-3,-7.25E-3,1.4150955E-4,-4.85293E-5,-2.058394E-3,-1.10769225E-2,-3.2142847E-4,1.0159883E-10,2.95E-3],"categories":[],"categories_nodes":[],"categories_segments":[],"categories_sizes":[],"default_left":[0,0,0,0,0,0,0,0,0,0,0,0,0,0,0,0,0,0,0,0,0,0,0,0,0,0,0,0,0,0,0,0,0,0,0,0,0,0,0],"id":26,"left_children":[1,3,5,7,9,-1,11,13,15,17,-1,-1,-1,19,-1,21,23,25,27,-1,-1,-1,-1,29,31,33,35,37,-1,-1,-1,-1,-1,-1,-1,-1,-1,-1,-1],"loss_changes":[6.1599195E-1,6.297041E-1,9.55261E-2,2.7485597E-1,6.2967277E-1,0E0,2.1102628E-1,2.5679523E-1,4.6933547E-1,4.9498248E-1,0E0,0E0,0E0,7.908046E-2,0E0,4.9834847E-1,3.799688E-1,5.007286E-1,2.0650253E-1,0E0,0E0,0E0,0E0,2.6468366E-1,6.5396106E-1,5.1163256E-1,1.125272E0,8.2880974E-2,0E0,0E0,0E0,0E0,0E0,0E0,0E0,0E0,0E0,0E0,0E0],"parents":[2147483647,0,0,1,1,2,2,3,3,4,4,6,6,7,7,8,8,9,9,13,13,15,15,16,16,17,17,18,18,23,23,24,24,25,25,26,26,27,27],"right_children":[2,4,6,8,10,-1,12,14,16,18,-1,-1,-1,20,-1,22,24,26,28,-1,-1,-1,-1,30,32,34,36,38,-1,-1,-1,-1,-1,-1,-1,-1,-1,-1,-1],"split_conditions":[1.7E1,5E0,1E0,3.8804674E0,3.7E0,1.40003E-3,6E0,3.1E0,4.7518682E0,3.9368995E-2,-2.0142582E-3,-9.786868E-4,1.115733E-3,5E0,-2.304976E-3,3E0,1E0,3.579507E-2,2.1E0,1.7213953E-3,3.8134254E-4,-2.251594E-3,-9.1395417E-4,7.008701E0,1.4588166E1,1.4786168E2,3.0904127E1,2.251832E0,-1.5295673E-3,-3.0136033E-4,1.3526706E-3,-3.2430007E-3,9.030679E-5,-6.017307E-6,-8.5580547E-4,-2.1667648E-3,-4.461616E-4,-1.6847423E-4,1.703508E-3],"split_indices":[22,8,11,18,14,0,8,15,18,13,0,0,0,3,0,10,19,13,15,0,0,0,0,18,31,31,31,18,0,0,0,0,0,0,0,0,0,0,0],"split_type":[0,0,0,0,0,0,0,0,0,0,0,0,0,0,0,0,0,0,0,0,0,0,0,0,0,0,0,0,0,0,0,0,0,0,0,0,0,0,0],"sum_hessian":[1.563E3,1.458E3,1.05E2,5.11E2,9.47E2,7.6E1,2.9E1,1.13E2,3.98E2,9.36E2,1.1E1,1.1E1,1.8E1,1.01E2,1.2E1,2.9E1,3.69E2,8.54E2,8.2E1,9E1,1.1E1,1E1,1.9E1,2.53E2,1.16E2,8.15E2,3.9E1,6.9E1,1.3E1,6.6E1,1.87E2,1.1E1,1.05E2,6.79E2,1.36E2,1.2E1,2.7E1,1E1,5.9E1],"tree_param":{"num_deleted":"0","num_feature":"40","num_nodes":"39","size_leaf_vector":"1"}},{"base_weights":[1.2539585E-2,2.4370467E-3,4.8137538E-2,2.4371073E-2,-2.097315E-2,-1.2499962E-3,6.2592596E-2,3.5443075E-3,5.8264464E-2,2.977671E-3,-7.0618555E-2,4.8333336E-2,-1.4285713E-1,8.306011E-2,1.9318186E-2,1.30081335E-2,-1.2592591E-1,-2.470588E-3,6.858407E-2,-8.310245E-3,2.9302326E-3,-7.6499996E-3,-4.9142852E-2,-2.7272725E-3,7.8E-2,1.0159883E-10,-8.181817E-3,2.976E-3,4.7457628E-2,-2.678571E-2,2.909091E-3,-1.8565396E-2,6.917293E-2,-9.749999E-3,9.375001E-4,8.306011E-2,6.818185E-3,7.911396E-3,-1.1956521E-1,-1.0485436E-1,3.013699E-2,4.6153853E-4,2.9210525E-3,-2.7272725E-3,7.755102E-2,-8.205128E-2,2.8333333E-3,2.9032258E-3,-1.0724636E-3,2.4661017E-3,-9.3749986E-4,4.1666673E-4,2.9797296E-3,2.8499998E-3,-1.9199998E-3,5.0689664E-4,-2.6666664E-3,-6.181818E-3,2.7857143E-3,-1.551723E-4,-6.847826E-3,1.9500001E-3,-3.6428568E-3,2.923077E-3,1.0159883E-10,2.8235293E-3,-6.2608696E-3],"categories":[],"categories_nodes":[],"categories_segments":[],"categories_sizes":[],"default_left":[0,0,0,0,0,0,0,0,0,0,0,0,0,0,0,0,0,0,0,0,0,0,0,0,0,0,0,0,0,0,0,0,0,0,0,0,0,0,0,0,0,0,0,0,0,0,0,0,0,0,0,0,0,0,0,0,0,0,0,0,0,0,0,0,0,0,0],"id":27,"left_children":[1,3,5,7,9,11,13,15,17,19,21,23,25,27,29,31,33,-1,35,37,-1,-1,39,-1,41,-1,-1,-1,43,45,-1,47,49,-1,-1,51,53,55,57,59,61,-1,-1,-1,63,65,-1,-1,-1,-1,-1,-1,-1,-1,-1,-1,-1,-1,-1,-1,-1,-1,-1,-1,-1,-1,-1],"loss_changes":[5.6773794E-1,6.3260484E-1,2.4922925E-1,4.4873932E-1,7.0888305E-1,5.6861305E-1,2.3753989E-1,4.8562512E-1,3.5681826E-1,4.3159008E-1,7.5565434E-1,2.5494242E-1,3.8961038E-1,1.00447774E-1,3.1764072E-1,6.556397E-1,8.5497683E-1,0E0,2.0150614E-1,6.524564E-1,0E0,0E0,7.760998E-1,0E0,5.9140056E-2,0E0,0E0,0E0,2.5272158E-1,3.8294104E-1,0E0,4.7317585E-1,1.766069E-1,0E0,0E0,2.0449829E-1,2.8085452E-1,2.7634797E-1,8.643178E-1,1.2658637E0,3.936272E-1,0E0,0E0,0E0,7.556254E-2,8.8976336E-1,0E0,0E0,0E0,0E0,0E0,0E0,0E0,0E0,0E0,0E0,0E0,0E0,0E0,0E0,0E0,0E0,0E0,0E0,0E0,0E0,0E0],"parents":[2147483647,0,0,1,1,2,2,3,3,4,4,5,5,6,6,7,7,8,8,9,9,10,10,11,11,12,12,13,13,14,14,15,15,16,16,18,18,19,19,22,22,24,24,28,28,29,29,31,31,32,32,35,35,36,36,37,37,38,38,39,39,40,40,44,44,45,45],"right_children":[2,4,6,8,10,12,14,16,18,20,22,24,26,28,30,32,34,-1,36,38,-1,-1,40,-1,42,-1,-1,-1,44,46,-1,48,50,-1,-1,52,54,56,58,60,62,-1,-1,-1,64,66,-1,-1,-1,-1,-1,-1,-1,-1,-1,-1,-1,-1,-1,-1,-1,-1,-1,-1,-1,-1,-1],"split_conditions":[1.1E1,3E0,2.727E-1,6E0,8.5647864E-4,1.2E1,1E0,4.5454547E-1,1.364E-1,1.3635115E1,4E0,2.9652603E1,4E0,1.6E1,1.7E1,1E1,9.999998E0,-2.015761E-3,1.1004421E1,1.6035202E2,2.7282168E-3,-1.3565012E-3,4.4281807E1,